{"learner":{"attributes":{"scikit_learn":"{\"_estimator_type\": \"regressor\"}"},"feature_names":["Lat","Long_"],"feature_types":["float","float"],"gradient_booster":{"model":{"gbtree_model_param":{"num_parallel_tree":"1","num_trees":"100"},"iteration_indptr":[0,1,2,3,4,5,6,7,8,9,10,11,12,13,14,15,16,17,18,19,20,21,22,23,24,25,26,27,28,29,30,31,32,33,34,35,36,37,38,39,40,41,42,43,44,45,46,47,48,49,50,51,52,53,54,55,56,57,58,59,60,61,62,63,64,65,66,67,68,69,70,71,72,73,74,75,76,77,78,79,80,81,82,83,84,85,86,87,88,89,90,91,92,93,94,95,96,97,98,99,100],"tree_info":[0,0,0,0,0,0,0,0,0,0,0,0,0,0,0,0,0,0,0,0,0,0,0,0,0,0,0,0,0,0,0,0,0,0,0,0,0,0,0,0,0,0,0,0,0,0,0,0,0,0,0,0,0,0,0,0,0,0,0,0,0,0,0,0,0,0,0,0,0,0,0,0,0,0,0,0,0,0,0,0,0,0,0,0,0,0,0,0,0,0,0,0,0,0,0,0,0,0,0,0],"trees":[{"base_weights":[5.9518152E-5,-1.8272482E3,1.0251888E3,3.1913633E3,-2.3809812E3,4.893815E2,3.2158904E3,6.8589355E3,6.0884186E2,-2.846406E3,-8.994341E2,2.221204E2,5.3271685E3,4.193568E3,-1.9311414E2,1.1163574E2,8.320886E3,2.185592E3,-2.896801E2,-1.207827E3,-3.715623E3,1.090531E3,-1.8655227E3,6.851696E2,-4.6111973E3,8.563784E3,3.1378096E3,3.798507E3,1.765605E4,2.282392E3,-1.1166011E3,1.3498503E3,-9.119156E2,3.35639E3,5.254827E3,-1.5466107E3,6.671911E3,-1.0210897E3,9.7038477E2,-7.684183E2,-2.8523948E3,-3.975627E3,-2.5920132E3,1.0625045E2,3.808058E3,-8.9971716E2,-2.1927014E3,9.71025E3,6.3069806E2,-5.6968276E3,9.9123694E2,-3.8282776E2,1.0165118E4,3.8876018E3,1.6750074E3,-1.5194127E3,4.3590195E3,7.6077124E3,4.0677085E3,4.2116113E3,-5.2408887E2,-1.635396E3,2.0958025E3,4.8297665E2,4.643445E1,2.3870977E3,2.3284074E2,-1.5754489E2,-6.776249E2,9.138517E2,2.5889016E3,-1.7034987E2,6.1295483E2,-3.25705E2,5.2089764E2,-2.4762238E2,-1.2690046E3,-3.3260925E2,-1.2092206E3,-1.3577634E2,-1.00791E3,-8.966156E2,8.257253E1,1.4164263E3,-2.430874E2,-4.2190067E2,7.094767E2,-7.315142E2,-2.8968607E2,-6.1265553E1,3.6719768E3,-1.325899E2,3.055425E2,-2.6278488E2,-1.7953339E3,-4.825465E2,2.3678018E3,-9.119156E2,4.5481262E2,-1.4587403E1,3.4590576E3,3.2491214E2,1.9333126E3,-7.051042E2,1.0256125E3,2.4547053E3,1.1031975E3,1.4832844E3,3.4718445E2,2.1185017E3,4.8289078E2,-4.3915927E2,7.6718445E2,-9.559293E1,-1.6211832E3,-3.8226556E2,9.0739514E2],"categories":[],"categories_nodes":[],"categories_segments":[],"categories_sizes":[],"default_left":[0,0,0,0,0,0,0,0,0,0,0,0,0,0,0,0,0,0,0,0,0,0,0,0,0,0,0,0,0,0,0,0,0,0,0,0,0,0,0,0,0,0,0,0,0,0,0,0,0,0,0,0,0,0,0,0,0,0,0,0,0,0,0,0,0,0,0,0,0,0,0,0,0,0,0,0,0,0,0,0,0,0,0,0,0,0,0,0,0,0,0,0,0,0,0,0,0,0,0,0,0,0,0,0,0,0,0,0,0,0,0,0,0,0,0,0,0],"id":0,"left_children":[1,3,5,7,9,11,13,15,17,19,21,23,25,27,29,31,33,35,37,39,41,43,45,47,49,51,53,55,57,59,61,63,-1,-1,65,67,69,-1,71,73,75,77,79,81,83,85,87,89,91,93,95,97,99,-1,101,103,105,-1,107,109,111,113,115,-1,-1,-1,-1,-1,-1,-1,-1,-1,-1,-1,-1,-1,-1,-1,-1,-1,-1,-1,-1,-1,-1,-1,-1,-1,-1,-1,-1,-1,-1,-1,-1,-1,-1,-1,-1,-1,-1,-1,-1,-1,-1,-1,-1,-1,-1,-1,-1,-1,-1,-1,-1,-1,-1],"loss_changes":[3.544235E9,1.897299E9,1.4210643E9,6.3989165E8,4.2013338E8,1.2594452E9,7.9404186E8,2.7526912E8,5.8719664E7,6.592266E8,2.8656182E8,2.0733687E9,3.345202E8,9.1685555E8,1.2599779E8,2.751548E7,1.4339392E8,2.6147658E8,1.0924494E8,1.1559805E8,7.850675E7,1.3066103E8,2.9626304E7,4.092863E8,4.9830272E8,2.9042163E8,4.380054E8,5.461407E8,4.202012E8,8.342203E7,7.009061E7,1.304833E6,0E0,0E0,1.5115245E8,5.360618E6,2.3400896E7,0E0,3.4164124E7,1.0519186E8,9.145072E7,3.4238976E7,9.702394E7,2.0174466E7,5.866269E7,4.798188E7,1.9954112E7,1.2790138E8,3.5026787E8,8.904499E7,2.6388096E8,2.47887E7,2.3758336E8,0E0,7.489642E7,8.189374E7,3.9735168E8,0E0,1.93168E6,5.5375376E7,2.4014082E7,1.719567E8,2.2635488E7,0E0,0E0,0E0,0E0,0E0,0E0,0E0,0E0,0E0,0E0,0E0,0E0,0E0,0E0,0E0,0E0,0E0,0E0,0E0,0E0,0E0,0E0,0E0,0E0,0E0,0E0,0E0,0E0,0E0,0E0,0E0,0E0,0E0,0E0,0E0,0E0,0E0,0E0,0E0,0E0,0E0,0E0,0E0,0E0,0E0,0E0,0E0,0E0,0E0,0E0,0E0,0E0,0E0,0E0],"parents":[2147483647,0,0,1,1,2,2,3,3,4,4,5,5,6,6,7,7,8,8,9,9,10,10,11,11,12,12,13,13,14,14,15,15,16,16,17,17,18,18,19,19,20,20,21,21,22,22,23,23,24,24,25,25,26,26,27,27,28,28,29,29,30,30,31,31,34,34,35,35,36,36,38,38,39,39,40,40,41,41,42,42,43,43,44,44,45,45,46,46,47,47,48,48,49,49,50,50,51,51,52,52,54,54,55,55,56,56,58,58,59,59,60,60,61,61,62,62],"right_children":[2,4,6,8,10,12,14,16,18,20,22,24,26,28,30,32,34,36,38,40,42,44,46,48,50,52,54,56,58,60,62,64,-1,-1,66,68,70,-1,72,74,76,78,80,82,84,86,88,90,92,94,96,98,100,-1,102,104,106,-1,108,110,112,114,116,-1,-1,-1,-1,-1,-1,-1,-1,-1,-1,-1,-1,-1,-1,-1,-1,-1,-1,-1,-1,-1,-1,-1,-1,-1,-1,-1,-1,-1,-1,-1,-1,-1,-1,-1,-1,-1,-1,-1,-1,-1,-1,-1,-1,-1,-1,-1,-1,-1,-1,-1,-1,-1,-1],"split_conditions":[-9.529251E1,-1.2055291E2,4.13534E1,4.4938377E1,-9.7786385E1,-1.51804E1,4.562975E1,-1.3759E1,4.8296074E1,-1.0496126E2,3.6654606E1,-7.309049E1,1.21784E1,-6.712081E1,-9.1835106E1,-1.515389E2,3.948028E1,4.6357216E1,5.74684E1,4.6357216E1,-9.875637E1,3.4649677E1,3.948028E1,2.6926016E1,-6.566686E1,2.3158E0,2.3158E0,-9.432604E1,4.367741E1,4.6528687E1,5.74684E1,-1.5985619E2,-9.119156E2,3.35639E3,-1.2318637E2,-1.2233284E2,4.783741E1,-1.0210897E3,-1.515389E2,4.5427128E1,-1.1363573E2,2.9622099E1,3.3219276E1,2.7424355E1,-9.634565E1,3.9274323E1,4.5997128E1,7.1315E0,3.4078598E1,1.6742498E1,1.8328646E1,8.554E-1,-1.3759E1,3.8876018E3,3.9933224E1,4.482017E1,4.1742283E1,7.6077124E3,4.3753036E1,-9.3854454E1,-9.334885E1,5.04E1,-8.305093E1,4.8297665E2,4.643445E1,2.3870977E3,2.3284074E2,-1.5754489E2,-6.776249E2,9.138517E2,2.5889016E3,-1.7034987E2,6.1295483E2,-3.25705E2,5.2089764E2,-2.4762238E2,-1.2690046E3,-3.3260925E2,-1.2092206E3,-1.3577634E2,-1.00791E3,-8.966156E2,8.257253E1,1.4164263E3,-2.430874E2,-4.2190067E2,7.094767E2,-7.315142E2,-2.8968607E2,-6.1265553E1,3.6719768E3,-1.325899E2,3.055425E2,-2.6278488E2,-1.7953339E3,-4.825465E2,2.3678018E3,-9.119156E2,4.5481262E2,-1.4587403E1,3.4590576E3,3.2491214E2,1.9333126E3,-7.051042E2,1.0256125E3,2.4547053E3,1.1031975E3,1.4832844E3,3.4718445E2,2.1185017E3,4.8289078E2,-4.3915927E2,7.6718445E2,-9.559293E1,-1.6211832E3,-3.8226556E2,9.0739514E2],"split_indices":[1,1,0,0,1,1,0,0,0,1,0,1,0,1,1,1,0,0,0,0,1,0,0,0,1,1,1,1,0,0,0,1,0,0,1,1,0,0,1,0,1,0,0,0,1,0,0,0,0,0,0,0,0,0,0,0,0,0,0,1,1,0,1,0,0,0,0,0,0,0,0,0,0,0,0,0,0,0,0,0,0,0,0,0,0,0,0,0,0,0,0,0,0,0,0,0,0,0,0,0,0,0,0,0,0,0,0,0,0,0,0,0,0,0,0,0,0],"split_type":[0,0,0,0,0,0,0,0,0,0,0,0,0,0,0,0,0,0,0,0,0,0,0,0,0,0,0,0,0,0,0,0,0,0,0,0,0,0,0,0,0,0,0,0,0,0,0,0,0,0,0,0,0,0,0,0,0,0,0,0,0,0,0,0,0,0,0,0,0,0,0,0,0,0,0,0,0,0,0,0,0,0,0,0,0,0,0,0,0,0,0,0,0,0,0,0,0,0,0,0,0,0,0,0,0,0,0,0,0,0,0,0,0,0,0,0,0],"sum_hessian":[1.89E3,6.79E2,1.211E3,6.7E1,6.12E2,9.74E2,2.37E2,2.7E1,4E1,4.65E2,1.47E2,9.24E2,5E1,1.84E2,5.3E1,5E0,2.2E1,1.4E1,2.6E1,1.62E2,3.03E2,4.8E1,9.9E1,8.44E2,8E1,1.9E1,3.1E1,1.8E2,4E0,1.4E1,3.9E1,4E0,1E0,1E1,1.2E1,8E0,6E0,7E0,1.9E1,1.29E2,3.3E1,2.44E2,5.9E1,3.6E1,1.2E1,2.6E1,7.3E1,4E0,8.4E2,6.7E1,1.3E1,3E0,1.6E1,3E0,2.8E1,1.7E1,1.63E2,2E0,2E0,8E0,6E0,3.4E1,5E0,3E0,1E0,7E0,5E0,4E0,4E0,3E0,3E0,8E0,1.1E1,1.15E2,1.4E1,1.4E1,1.9E1,5E0,2.39E2,1.6E1,4.3E1,1E0,3.5E1,1E1,2E0,2.3E1,3E0,6E1,1.3E1,1E0,3E0,2.23E2,6.17E2,4E0,6.3E1,1E1,3E0,1E0,2E0,2E0,1.4E1,2.6E1,2E0,1.5E1,2E0,2.3E1,1.4E2,1E0,1E0,3E0,5E0,5E0,1E0,2.6E1,8E0,1E0,4E0],"tree_param":{"num_deleted":"0","num_feature":"2","num_nodes":"117","size_leaf_vector":"1"}},{"base_weights":[1.6446405E1,-1.2742183E3,7.405681E2,2.3469387E3,-1.673834E3,5.410167E2,4.0383394E3,5.001034E3,4.7714313E2,-1.994891E3,-5.8494196E2,-3.2998833E3,8.1357745E2,5.30693E3,-2.4297107E3,1.4394287E1,6.0844604E3,-1.4446416E2,2.1855688E3,-8.5358575E2,-2.5866526E3,8.3294305E2,-1.32571E3,-3.9399023E3,1.048167E2,5.068693E2,2.4439353E3,3.9081003E3,1.3561104E4,-1.1888678E3,1.627376E3,1.0507775E3,-7.7512823E2,2.441011E3,3.8799126E3,-1.099922E3,1.2630869E3,-7.493567E2,4.756233E3,7.818697E1,-1.4567336E3,-2.774448E3,-1.6201309E3,-2.2182422E2,2.0349332E3,-1.1423345E3,-9.393847E2,-6.126301E2,-1.2634474E3,-1.1698097E3,4.743508E3,4.4311587E3,3.9902213E2,-1.0710259E3,2.6490583E3,5.7547446E3,2.0535002E3,6.199001E3,7.749803E3,2.200112E3,-1.3624805E1,3.7430692E2,3.9469265E1,1.7604846E3,1.7463055E2,-4.6265967E2,-8.970495E1,-3.5251956E2,6.3361176E2,6.130662E2,-5.1499493E2,1.8990448E3,-4.670021E2,-4.0727432E2,6.0718115E2,-7.758302E2,-3.6236E2,-7.5090784E2,-9.7197925E2,1.7264043E2,-7.0442615E2,9.879981E2,-1.9043082E2,8.238975E2,1.0733497E2,-4.4024283E2,1.7669812E3,-5.745077E2,8.8490216E2,4.079853E2,-1.3432539E3,2.3059143E3,-1.7133575E2,2.845782E3,9.772008E2,-2.0270145E2,2.169682E2,1.8607451E3,6.337363E2,-1.14676544E2,1.9826951E3,3.0128914E3,1.909078E2,3.1489602E3,-8.9757666E2,7.8632526E2,2.037252E2],"categories":[],"categories_nodes":[],"categories_segments":[],"categories_sizes":[],"default_left":[0,0,0,0,0,0,0,0,0,0,0,0,0,0,0,0,0,0,0,0,0,0,0,0,0,0,0,0,0,0,0,0,0,0,0,0,0,0,0,0,0,0,0,0,0,0,0,0,0,0,0,0,0,0,0,0,0,0,0,0,0,0,0,0,0,0,0,0,0,0,0,0,0,0,0,0,0,0,0,0,0,0,0,0,0,0,0,0,0,0,0,0,0,0,0,0,0,0,0,0,0,0,0,0,0,0,0],"id":1,"left_children":[1,3,5,7,9,11,13,15,17,19,21,23,25,27,29,31,33,35,37,39,41,43,45,47,49,51,53,55,57,-1,59,61,-1,-1,63,65,67,69,71,73,75,77,79,81,83,85,-1,87,-1,89,91,93,95,-1,97,99,101,-1,103,105,-1,-1,-1,-1,-1,-1,-1,-1,-1,-1,-1,-1,-1,-1,-1,-1,-1,-1,-1,-1,-1,-1,-1,-1,-1,-1,-1,-1,-1,-1,-1,-1,-1,-1,-1,-1,-1,-1,-1,-1,-1,-1,-1,-1,-1,-1,-1],"loss_changes":[1.768269E9,9.879368E8,7.9540186E8,3.3507165E8,2.1313574E8,1.2003136E9,5.7906074E8,1.5118675E8,4.3856504E7,3.172471E8,1.491999E8,1.6602253E8,5.333083E8,6.1668045E8,8.109212E7,1.887106E7,7.248851E7,4.3079824E7,8.65559E7,9.171938E7,5.195405E7,6.2574572E7,2.7215104E7,5.5253504E7,8.2412776E7,3.7955632E8,2.1793824E8,1.6284678E8,1.7004877E8,0E0,3.932194E6,7.40871E5,0E0,0E0,8.182851E7,6.269074E6,2.9390152E7,1.9717442E7,6.946989E7,1.8433464E8,2.470152E7,2.461312E7,8.606115E7,4.128275E7,2.6458952E7,2.0528096E8,0E0,3.3485874E7,0E0,9.813386E7,5.1310656E7,1.1150314E8,3.0640246E8,0E0,2.9960986E8,1.335879E8,2.9930864E8,0E0,2.0843245E8,1.40994E5,0E0,0E0,0E0,0E0,0E0,0E0,0E0,0E0,0E0,0E0,0E0,0E0,0E0,0E0,0E0,0E0,0E0,0E0,0E0,0E0,0E0,0E0,0E0,0E0,0E0,0E0,0E0,0E0,0E0,0E0,0E0,0E0,0E0,0E0,0E0,0E0,0E0,0E0,0E0,0E0,0E0,0E0,0E0,0E0,0E0,0E0,0E0],"parents":[2147483647,0,0,1,1,2,2,3,3,4,4,5,5,6,6,7,7,8,8,9,9,10,10,11,11,12,12,13,13,14,14,15,15,16,16,17,17,18,18,19,19,20,20,21,21,22,22,23,23,24,24,25,25,26,26,27,27,28,28,30,30,31,31,34,34,35,35,36,36,37,37,38,38,39,39,40,40,41,41,42,42,43,43,44,44,45,45,47,47,49,49,50,50,51,51,52,52,54,54,55,55,56,56,58,58,59,59],"right_children":[2,4,6,8,10,12,14,16,18,20,22,24,26,28,30,32,34,36,38,40,42,44,46,48,50,52,54,56,58,-1,60,62,-1,-1,64,66,68,70,72,74,76,78,80,82,84,86,-1,88,-1,90,92,94,96,-1,98,100,102,-1,104,106,-1,-1,-1,-1,-1,-1,-1,-1,-1,-1,-1,-1,-1,-1,-1,-1,-1,-1,-1,-1,-1,-1,-1,-1,-1,-1,-1,-1,-1,-1,-1,-1,-1,-1,-1,-1,-1,-1,-1,-1,-1,-1,-1,-1,-1,-1,-1],"split_conditions":[-9.529251E1,-1.2055291E2,-1.51804E1,4.4938377E1,-9.76502E1,1.843727E1,5.04E1,-1.3759E1,-1.2318637E2,-1.0496126E2,3.7268185E1,-6.566686E1,-7.927355E1,4.1201355E1,5.74684E1,-1.515389E2,3.948028E1,6.03886E1,4.609687E1,4.1686253E1,-9.853467E1,3.346756E1,4.6978302E1,1.6742498E1,1.8328646E1,3.044397E1,2.0194742E1,2.0194742E1,2.3158E0,-1.1888678E3,7.12761E1,-1.5985619E2,-7.7512823E2,2.441011E3,-1.2318637E2,5.74684E1,-1.5985619E2,-1.2233284E2,4.8296074E1,3.8753887E1,4.311364E1,4.1111683E1,3.275463E1,-9.760123E1,3.6178474E1,4.6283985E1,-9.393847E2,7.1315E0,-1.2634474E3,1.8097597E1,1.834946E1,2.6926016E1,3.4078598E1,-1.0710259E3,3.634118E1,2.3158E0,2.3158E0,6.199001E3,4.735424E1,6.03886E1,-1.3624805E1,3.7430692E2,3.9469265E1,1.7604846E3,1.7463055E2,-4.6265967E2,-8.970495E1,-3.5251956E2,6.3361176E2,6.130662E2,-5.1499493E2,1.8990448E3,-4.670021E2,-4.0727432E2,6.0718115E2,-7.758302E2,-3.6236E2,-7.5090784E2,-9.7197925E2,1.7264043E2,-7.0442615E2,9.879981E2,-1.9043082E2,8.238975E2,1.0733497E2,-4.4024283E2,1.7669812E3,-5.745077E2,8.8490216E2,4.079853E2,-1.3432539E3,2.3059143E3,-1.7133575E2,2.845782E3,9.772008E2,-2.0270145E2,2.169682E2,1.8607451E3,6.337363E2,-1.14676544E2,1.9826951E3,3.0128914E3,1.909078E2,3.1489602E3,-8.9757666E2,7.8632526E2,2.037252E2],"split_indices":[1,1,1,0,1,0,0,0,1,1,0,1,1,0,0,1,0,0,0,0,1,0,0,0,0,0,0,0,1,0,1,1,0,0,1,0,1,1,0,0,0,0,0,1,0,0,0,0,0,0,0,0,0,0,0,1,1,0,0,0,0,0,0,0,0,0,0,0,0,0,0,0,0,0,0,0,0,0,0,0,0,0,0,0,0,0,0,0,0,0,0,0,0,0,0,0,0,0,0,0,0,0,0,0,0,0,0],"split_type":[0,0,0,0,0,0,0,0,0,0,0,0,0,0,0,0,0,0,0,0,0,0,0,0,0,0,0,0,0,0,0,0,0,0,0,0,0,0,0,0,0,0,0,0,0,0,0,0,0,0,0,0,0,0,0,0,0,0,0,0,0,0,0,0,0,0,0,0,0,0,0,0,0,0,0,0,0,0,0,0,0,0,0,0,0,0,0,0,0,0,0,0,0,0,0,0,0,0,0,0,0,0,0,0,0,0,0],"sum_hessian":[1.89E3,6.79E2,1.211E3,6.7E1,6.12E2,1.143E3,6.8E1,2.7E1,4E1,4.72E2,1.4E2,7.5E1,1.068E3,5.7E1,1.1E1,5E0,2.2E1,3E1,1E1,1.62E2,3.1E2,4.8E1,9.2E1,6.3E1,1.2E1,9E2,1.68E2,5E1,7E0,8E0,3E0,4E0,1E0,1E1,1.2E1,1.8E1,1.2E1,5E0,5E0,6.4E1,9.8E1,2.58E2,5.2E1,2.6E1,2.2E1,8.5E1,7E0,5E0,5.8E1,1E1,2E0,2.3E1,8.77E2,5E0,1.63E2,2.4E1,2.6E1,2E0,5E0,2E0,1E0,3E0,1E0,7E0,5E0,1.1E1,7E0,3E0,9E0,1E0,4E0,4E0,1E0,3.7E1,2.7E1,1.6E1,8.2E1,1.67E2,9.1E1,1.3E1,3.9E1,2E0,2.4E1,1.5E1,7E0,8.2E1,3E0,4E0,1E0,6E0,4E0,1E0,1E0,3E0,2E1,2.03E2,6.74E2,2E1,1.43E2,3E0,2.1E1,3E0,2.3E1,4E0,1E0,1E0,1E0],"tree_param":{"num_deleted":"0","num_feature":"2","num_nodes":"107","size_leaf_vector":"1"}},{"base_weights":[2.3682499E1,-8.3584674E2,5.745658E2,1.7204103E3,-1.0932719E3,1.8964494E2,2.3224531E3,3.644109E3,3.647036E2,-1.4031742E3,-3.5488635E2,3.8853912E1,2.8351177E3,1.2038878E4,1.8736018E3,-5.0149334E1,4.4493887E3,-3.3464548E2,1.3717051E3,-6.032664E2,-1.8179066E3,8.6111304E2,-1.4632773E3,2.6875858E2,-2.246648E3,4.5750635E3,1.6590543E3,1.7318312E4,4.351667E3,1.0309838E3,3.6895967E3,8.1829944E2,-6.58859E2,5.917602E3,2.864794E3,-6.0823395E2,3.0663095E2,-6.418256E2,3.7171553E3,-1.4663982E3,-1.8570561E2,-2.0155477E3,-1.3101927E3,4.5104086E2,4.3426294E3,-2.4530857E3,-9.755445E2,-9.2914343E2,5.627944E2,-2.822526E3,7.520828E2,-1.3606967E3,5.3101865E3,2.3349907E3,7.571217E2,6.4175933E3,6.7338784E3,2.4499683E3,1.3563037E3,5.2648906E3,5.1050323E2,6.3928096E3,2.99871E2,2.9008786E2,3.3548878E1,1.00803894E3,2.069699E3,1.2983574E3,1.3097296E2,2.4259914E2,-3.7823813E2,2.5607748E2,-2.70848E2,1.5211785E3,3.2882007E2,-6.568485E2,-1.7159727E1,1.5590834E2,-6.8858203E2,-4.4502142E2,-6.5971906E2,-2.3990657E2,-6.768004E2,2.2975487E2,-2.3948192E2,3.895947E2,3.3037107E3,-5.5807996E2,-9.501283E2,8.83647E2,-3.5661377E2,2.0898875E2,-4.471263E2,5.1502594E1,3.6244754E2,-1.493993E2,-8.873737E2,-2.7116736E2,1.5353971E3,-1.2071318E3,5.948183E2,-8.887427E1,1.9353671E3,7.635381E1,1.5084688E3,2.6639836E3,2.2393346E2,-2.651694E2,7.193011E2,-7.050248E2,2.4742847E3,2.9640775E2,-4.5610257E2,1.6991621E3,4.6764946E3,4.4060895E2,-3.75498E2],"categories":[],"categories_nodes":[],"categories_segments":[],"categories_sizes":[],"default_left":[0,0,0,0,0,0,0,0,0,0,0,0,0,0,0,0,0,0,0,0,0,0,0,0,0,0,0,0,0,0,0,0,0,0,0,0,0,0,0,0,0,0,0,0,0,0,0,0,0,0,0,0,0,0,0,0,0,0,0,0,0,0,0,0,0,0,0,0,0,0,0,0,0,0,0,0,0,0,0,0,0,0,0,0,0,0,0,0,0,0,0,0,0,0,0,0,0,0,0,0,0,0,0,0,0,0,0,0,0,0,0,0,0,0,0,0,0],"id":2,"left_children":[1,3,5,7,9,11,13,15,17,19,21,23,25,27,29,31,33,35,37,39,41,43,45,47,49,51,53,55,57,59,61,63,-1,65,67,-1,69,71,73,75,77,79,81,83,85,87,89,91,93,95,97,99,101,-1,103,105,-1,-1,107,109,111,113,115,-1,-1,-1,-1,-1,-1,-1,-1,-1,-1,-1,-1,-1,-1,-1,-1,-1,-1,-1,-1,-1,-1,-1,-1,-1,-1,-1,-1,-1,-1,-1,-1,-1,-1,-1,-1,-1,-1,-1,-1,-1,-1,-1,-1,-1,-1,-1,-1,-1,-1,-1,-1,-1,-1],"loss_changes":[8.958693E8,4.8817584E8,7.752959E8,1.7601302E8,1.5327405E8,3.772621E8,8.8457984E8,8.352067E7,2.9333102E7,1.5581997E8,2.708206E8,4.7140474E8,9.67703E7,2.8989363E8,3.022341E8,1.2979538E7,3.655728E7,2.7760512E7,8.267058E7,5.8474508E7,2.8566656E7,1.350979E8,4.829691E7,2.875872E8,1.437288E8,9.449584E7,1.7086416E8,1.3544064E8,4.6058624E7,3.014182E8,5.7536134E8,4.1698475E5,0E0,4.427264E6,4.429485E7,0E0,1.5970632E7,4.6736985E6,2.2822168E7,5.388107E7,1.6637075E8,1.8417664E7,4.1651424E7,3.482801E7,1.8872438E8,8.499824E6,6.368177E7,1.4795232E8,1.6512387E8,2.024192E7,1.0584371E8,3.4689424E7,1.1705984E8,0E0,6.0974456E7,3.5264704E7,0E0,0E0,1.1450781E7,3.6008314E8,1.2175414E8,1.4631258E8,5.4428904E7,0E0,0E0,0E0,0E0,0E0,0E0,0E0,0E0,0E0,0E0,0E0,0E0,0E0,0E0,0E0,0E0,0E0,0E0,0E0,0E0,0E0,0E0,0E0,0E0,0E0,0E0,0E0,0E0,0E0,0E0,0E0,0E0,0E0,0E0,0E0,0E0,0E0,0E0,0E0,0E0,0E0,0E0,0E0,0E0,0E0,0E0,0E0,0E0,0E0,0E0,0E0,0E0,0E0,0E0],"parents":[2147483647,0,0,1,1,2,2,3,3,4,4,5,5,6,6,7,7,8,8,9,9,10,10,11,11,12,12,13,13,14,14,15,15,16,16,17,17,18,18,19,19,20,20,21,21,22,22,23,23,24,24,25,25,26,26,27,27,28,28,29,29,30,30,31,31,33,33,34,34,36,36,37,37,38,38,39,39,40,40,41,41,42,42,43,43,44,44,45,45,46,46,47,47,48,48,49,49,50,50,51,51,52,52,54,54,55,55,58,58,59,59,60,60,61,61,62,62],"right_children":[2,4,6,8,10,12,14,16,18,20,22,24,26,28,30,32,34,36,38,40,42,44,46,48,50,52,54,56,58,60,62,64,-1,66,68,-1,70,72,74,76,78,80,82,84,86,88,90,92,94,96,98,100,102,-1,104,106,-1,-1,108,110,112,114,116,-1,-1,-1,-1,-1,-1,-1,-1,-1,-1,-1,-1,-1,-1,-1,-1,-1,-1,-1,-1,-1,-1,-1,-1,-1,-1,-1,-1,-1,-1,-1,-1,-1,-1,-1,-1,-1,-1,-1,-1,-1,-1,-1,-1,-1,-1,-1,-1,-1,-1,-1,-1,-1,-1],"split_conditions":[-9.432604E1,-1.2055291E2,4.15642E1,4.4938377E1,-9.76502E1,-1.51804E1,4.1686253E1,-1.3759E1,-1.283242E2,-1.0496126E2,3.9415615E1,-7.309049E1,1.21784E1,-8.836363E1,-7.6665596E1,-1.515389E2,3.948028E1,5.74684E1,4.714E1,-1.142655E2,-9.908119E1,3.871241E1,4.13534E1,-9.0614746E1,-6.566686E1,-1.3759E1,2.3158E0,-9.299527E1,4.158072E1,-9.372845E1,4.4465485E1,-1.5985619E2,-6.58859E2,3.847974E1,-1.2318637E2,-6.0823395E2,6.48255E1,4.5211792E1,4.8068398E1,4.587932E1,4.562975E1,-1.02560326E2,4.0920128E1,3.7572422E1,-9.529251E1,-9.529251E1,4.165944E1,3.3219276E1,3.776707E1,1.6742498E1,1.8328646E1,7.12761E1,2.3158E0,2.3349907E3,3.9933224E1,-9.399514E1,6.7338784E3,2.4499683E3,-8.538713E1,4.367741E1,-8.520612E1,4.4352913E1,5.04E1,2.9008786E2,3.3548878E1,1.00803894E3,2.069699E3,1.2983574E3,1.3097296E2,2.4259914E2,-3.7823813E2,2.5607748E2,-2.70848E2,1.5211785E3,3.2882007E2,-6.568485E2,-1.7159727E1,1.5590834E2,-6.8858203E2,-4.4502142E2,-6.5971906E2,-2.3990657E2,-6.768004E2,2.2975487E2,-2.3948192E2,3.895947E2,3.3037107E3,-5.5807996E2,-9.501283E2,8.83647E2,-3.5661377E2,2.0898875E2,-4.471263E2,5.1502594E1,3.6244754E2,-1.493993E2,-8.873737E2,-2.7116736E2,1.5353971E3,-1.2071318E3,5.948183E2,-8.887427E1,1.9353671E3,7.635381E1,1.5084688E3,2.6639836E3,2.2393346E2,-2.651694E2,7.193011E2,-7.050248E2,2.4742847E3,2.9640775E2,-4.5610257E2,1.6991621E3,4.6764946E3,4.4060895E2,-3.75498E2],"split_indices":[1,1,0,0,1,1,0,0,1,1,0,1,0,1,1,1,0,0,0,1,1,0,0,1,1,0,1,1,0,1,0,1,0,0,1,0,0,0,0,0,0,1,0,0,1,1,0,0,0,0,0,1,1,0,0,1,0,0,1,0,1,0,0,0,0,0,0,0,0,0,0,0,0,0,0,0,0,0,0,0,0,0,0,0,0,0,0,0,0,0,0,0,0,0,0,0,0,0,0,0,0,0,0,0,0,0,0,0,0,0,0,0,0,0,0,0,0],"split_type":[0,0,0,0,0,0,0,0,0,0,0,0,0,0,0,0,0,0,0,0,0,0,0,0,0,0,0,0,0,0,0,0,0,0,0,0,0,0,0,0,0,0,0,0,0,0,0,0,0,0,0,0,0,0,0,0,0,0,0,0,0,0,0,0,0,0,0,0,0,0,0,0,0,0,0,0,0,0,0,0,0,0,0,0,0,0,0,0,0,0,0,0,0,0,0,0,0,0,0,0,0,0,0,0,0,0,0,0,0,0,0,0,0,0,0,0,0],"sum_hessian":[1.89E3,7.38E2,1.152E3,6.7E1,6.71E2,9.45E2,2.07E2,2.7E1,4E1,4.72E2,1.99E2,8.95E2,5E1,8E0,1.99E2,5E0,2.2E1,2.4E1,1.6E1,1.62E2,3.1E2,9.5E1,1.04E2,8.14E2,8.1E1,1.9E1,3.1E1,4E0,4E0,1.37E2,6.2E1,4E0,1E0,1E1,1.2E1,6E0,1.8E1,9E0,7E0,5.2E1,1.1E2,2.21E2,8.9E1,8.6E1,9E0,3.3E1,7.1E1,1.6E2,6.54E2,6.8E1,1.3E1,2E0,1.7E1,3E0,2.8E1,2E0,2E0,1E0,3E0,1.4E1,1.23E2,3.4E1,2.8E1,3E0,1E0,4E0,6E0,7E0,5E0,1.4E1,4E0,1E0,8E0,4E0,3E0,3.4E1,1.8E1,8.3E1,2.7E1,5.9E1,1.62E2,5.9E1,3E1,6.9E1,1.7E1,7E0,2E0,2E1,1.3E1,3E0,6.8E1,4.1E1,1.19E2,4.08E2,2.46E2,4E0,6.4E1,1E1,3E0,1E0,1E0,3E0,1.4E1,2.6E1,2E0,1E0,1E0,1E0,2E0,4E0,1E1,1E2,2.3E1,3.3E1,1E0,1.6E1,1.2E1],"tree_param":{"num_deleted":"0","num_feature":"2","num_nodes":"117","size_leaf_vector":"1"}},{"base_weights":[3.2902966E1,-5.78682E2,4.248617E2,1.2816871E3,-7.660726E2,1.149943E2,1.667873E3,3.077739E3,4.6921268E2,-9.8904663E2,-2.3490842E2,-1.2923391E-1,2.0856409E3,2.2876423E3,-4.9763797E2,-9.097494E1,4.073648E3,-1.0470754E3,7.1723834E2,-1.5601755E2,-1.2205223E3,6.4114966E2,-1.0336385E3,2.150052E2,-1.3939052E3,3.81402E3,1.259538E3,2.0611208E3,9.758365E3,2.778979E3,-8.285848E2,6.375369E2,-5.6003015E2,6.6300664E3,2.669003E3,1.0717306E3,2.81911E2,-7.827629E2,1.4160464E3,-1.0551616E3,-1.5920211E3,2.002706E2,2.6781602E3,-1.3923038E3,-3.0752176E2,2.1938928E3,1.771153E2,-1.5850706E3,1.4088569E3,-1.026062E3,1.3572947E3,2.5083328E3,-6.5599713E2,4.772287E3,1.7957257E3,4.8115415E3,2.254707E2,3.1092447E1,1.3801617E3,-1.7553998E3,5.5672626E2,2.2481807E2,2.8516554E1,4.6456848E2,2.2539907E3,1.8670282E3,2.3781087E2,-4.0633633E1,4.2974075E2,-3.6665018E2,1.3099784E1,1.01299506E3,-6.832258E2,-3.636791E2,4.1821083E1,-5.1703894E2,-1.3753966E2,1.6181305E2,-5.9276544E2,3.3087625E2,1.8714452E3,-1.5712294E2,-6.2078076E2,1.01808395E2,-6.857633E2,5.0380807E0,5.551567E2,-5.659559E2,1.8502803E2,9.1226324E2,-5.3559258E1,5.057762E2,2.9668484E3,-5.0556247E2,1.2067749E3,6.3854913E2,3.4531755E3,1.007182E3,4.1470193E2,5.335735E2,-4.3211163E2,2.3712893E0,1.1620313E1,4.1176643E1,-7.448842E2,1.0640215E3,-2.9341373E2],"categories":[],"categories_nodes":[],"categories_segments":[],"categories_sizes":[],"default_left":[0,0,0,0,0,0,0,0,0,0,0,0,0,0,0,0,0,0,0,0,0,0,0,0,0,0,0,0,0,0,0,0,0,0,0,0,0,0,0,0,0,0,0,0,0,0,0,0,0,0,0,0,0,0,0,0,0,0,0,0,0,0,0,0,0,0,0,0,0,0,0,0,0,0,0,0,0,0,0,0,0,0,0,0,0,0,0,0,0,0,0,0,0,0,0,0,0,0,0,0,0,0,0,0,0,0,0],"id":3,"left_children":[1,3,5,7,9,11,13,15,17,19,21,23,25,27,29,31,33,-1,35,37,39,41,43,45,47,49,51,53,55,57,59,61,-1,63,65,-1,67,69,71,73,75,77,79,81,83,-1,85,87,89,-1,-1,91,93,95,97,-1,99,101,-1,103,105,-1,-1,-1,-1,-1,-1,-1,-1,-1,-1,-1,-1,-1,-1,-1,-1,-1,-1,-1,-1,-1,-1,-1,-1,-1,-1,-1,-1,-1,-1,-1,-1,-1,-1,-1,-1,-1,-1,-1,-1,-1,-1,-1,-1,-1,-1],"loss_changes":[4.5354896E8,2.5860874E8,4.439077E8,9.778463E7,7.935658E7,2.0962613E8,3.0982534E8,6.6641376E7,4.964167E7,9.101626E7,1.4060952E8,2.6236789E8,6.801485E7,2.828048E8,5.869069E7,8.952246E6,3.975808E7,0E0,5.616836E7,1.0357794E8,2.1049728E7,8.567887E7,2.6917296E7,2.0256243E8,6.492069E7,9.768909E7,8.776142E7,1.173481E8,2.9572173E8,2.488416E7,6.2605776E7,2.3216712E5,0E0,1.0806032E7,7.509668E7,0E0,1.988193E7,2.7288604E7,2.2493274E8,4.8775136E7,1.5897504E7,6.0101584E7,8.845303E7,4.0075216E7,4.6847276E7,0E0,2.025229E8,7.417488E7,2.1268088E7,0E0,0E0,1.1687494E8,7.9007576E7,2.427194E8,9.928813E7,0E0,1.0323513E7,2.2543848E2,0E0,4.0273704E7,9.52486E7,0E0,0E0,0E0,0E0,0E0,0E0,0E0,0E0,0E0,0E0,0E0,0E0,0E0,0E0,0E0,0E0,0E0,0E0,0E0,0E0,0E0,0E0,0E0,0E0,0E0,0E0,0E0,0E0,0E0,0E0,0E0,0E0,0E0,0E0,0E0,0E0,0E0,0E0,0E0,0E0,0E0,0E0,0E0,0E0,0E0,0E0],"parents":[2147483647,0,0,1,1,2,2,3,3,4,4,5,5,6,6,7,7,8,8,9,9,10,10,11,11,12,12,13,13,14,14,15,15,16,16,18,18,19,19,20,20,21,21,22,22,23,23,24,24,25,25,26,26,27,27,28,28,29,29,30,30,31,31,33,33,34,34,36,36,37,37,38,38,39,39,40,40,41,41,42,42,43,43,44,44,46,46,47,47,48,48,51,51,52,52,53,53,54,54,56,56,57,57,59,59,60,60],"right_children":[2,4,6,8,10,12,14,16,18,20,22,24,26,28,30,32,34,-1,36,38,40,42,44,46,48,50,52,54,56,58,60,62,-1,64,66,-1,68,70,72,74,76,78,80,82,84,-1,86,88,90,-1,-1,92,94,96,98,-1,100,102,-1,104,106,-1,-1,-1,-1,-1,-1,-1,-1,-1,-1,-1,-1,-1,-1,-1,-1,-1,-1,-1,-1,-1,-1,-1,-1,-1,-1,-1,-1,-1,-1,-1,-1,-1,-1,-1,-1,-1,-1,-1,-1,-1,-1,-1,-1,-1,-1],"split_conditions":[-9.432604E1,-1.2055291E2,4.122781E1,4.165944E1,-9.76502E1,-1.51804E1,4.562975E1,-1.3759E1,4.25063E1,-1.0917685E2,3.9415615E1,-7.705634E1,7.12761E1,-6.712081E1,-9.3854454E1,-1.515389E2,-1.2318637E2,-1.0470754E3,4.4938377E1,-1.120944E2,4.1913116E1,3.8333424E1,4.402351E1,2.6926016E1,3.8194675E1,-1.3759E1,3.0717804E1,-9.334885E1,4.367741E1,-9.420722E1,-8.501139E1,-1.5985619E2,-5.6003015E2,8.554E-1,3.8519234E1,1.0717306E3,-1.2318637E2,4.587932E1,4.562975E1,4.061811E1,-9.839999E1,3.7572422E1,-9.529251E1,-9.601392E1,4.6978302E1,2.1938928E3,-7.927355E1,-6.566686E1,3.8564438E1,-1.026062E3,1.3572947E3,2.9622099E1,3.9933224E1,4.440556E1,4.1742283E1,4.8115415E3,4.3753036E1,4.609687E1,1.3801617E3,-9.1835106E1,5.04E1,2.2481807E2,2.8516554E1,4.6456848E2,2.2539907E3,1.8670282E3,2.3781087E2,-4.0633633E1,4.2974075E2,-3.6665018E2,1.3099784E1,1.01299506E3,-6.832258E2,-3.636791E2,4.1821083E1,-5.1703894E2,-1.3753966E2,1.6181305E2,-5.9276544E2,3.3087625E2,1.8714452E3,-1.5712294E2,-6.2078076E2,1.01808395E2,-6.857633E2,5.0380807E0,5.551567E2,-5.659559E2,1.8502803E2,9.1226324E2,-5.3559258E1,5.057762E2,2.9668484E3,-5.0556247E2,1.2067749E3,6.3854913E2,3.4531755E3,1.007182E3,4.1470193E2,5.335735E2,-4.3211163E2,2.3712893E0,1.1620313E1,4.1176643E1,-7.448842E2,1.0640215E3,-2.9341373E2],"split_indices":[1,1,0,0,1,1,0,0,0,1,0,1,1,1,1,1,1,0,0,1,0,0,0,0,0,0,0,1,0,1,1,1,0,0,0,0,1,0,0,0,1,0,1,1,0,0,1,1,0,0,0,0,0,0,0,0,0,0,0,1,0,0,0,0,0,0,0,0,0,0,0,0,0,0,0,0,0,0,0,0,0,0,0,0,0,0,0,0,0,0,0,0,0,0,0,0,0,0,0,0,0,0,0,0,0,0,0],"split_type":[0,0,0,0,0,0,0,0,0,0,0,0,0,0,0,0,0,0,0,0,0,0,0,0,0,0,0,0,0,0,0,0,0,0,0,0,0,0,0,0,0,0,0,0,0,0,0,0,0,0,0,0,0,0,0,0,0,0,0,0,0,0,0,0,0,0,0,0,0,0,0,0,0,0,0,0,0,0,0,0,0,0,0,0,0,0,0,0,0,0,0,0,0,0,0,0,0,0,0,0,0,0,0,0,0,0,0],"sum_hessian":[1.89E3,7.38E2,1.152E3,6.7E1,6.71E2,9.23E2,2.29E2,2E1,4.7E1,4.72E2,1.99E2,8.73E2,5E1,1.78E2,5.1E1,5E0,1.5E1,2E0,4.5E1,1.03E2,3.69E2,9.5E1,1.04E2,7.57E2,1.16E2,1.5E1,3.5E1,1.74E2,4E0,4E0,4.7E1,4E0,1E0,4E0,1.1E1,5E0,4E1,7.4E1,2.9E1,2.58E2,1.11E2,7.9E1,1.6E1,6.9E1,3.5E1,3E0,7.54E2,1.09E2,7E0,1E0,1.4E1,2.1E1,1.4E1,1.4E1,1.6E2,2E0,2E0,2E0,2E0,2.8E1,1.9E1,3E0,1E0,1E0,3E0,3E0,8E0,3E1,1E1,4.8E1,2.6E1,1.9E1,1E1,2.28E2,3E1,9.9E1,1.2E1,6.9E1,1E1,1.2E1,4E0,3.1E1,3.8E1,2.7E1,8E0,6.89E2,6.5E1,9.6E1,1.3E1,3E0,4E0,2E1,1E0,1.2E1,2E0,1.1E1,3E0,3.2E1,1.28E2,1E0,1E0,1E0,1E0,8E0,2E1,6E0,1.3E1],"tree_param":{"num_deleted":"0","num_feature":"2","num_nodes":"107","size_leaf_vector":"1"}},{"base_weights":[3.5704933E1,-3.3927048E2,4.219074E2,9.6968787E2,-4.3856488E2,1.2503457E2,1.2224967E3,2.3694983E3,3.370689E2,-6.820112E2,-1.1409563E2,1.8852134E3,-2.347817E1,1.9279185E3,-9.703755E2,5.627087E2,3.6776982E3,-8.376604E2,5.3382416E2,-1.09440865E2,-8.2664343E2,-4.083393E2,1.4506428E3,5.0238755E3,1.2983762E3,1.9747739E3,-1.3036879E2,1.40285E3,4.3112393E3,-1.5529482E3,6.6307886E2,1.0117769E3,-5.218358E2,2.883965E3,2.2641768E3,1.4844482E3,-1.9011311E2,1.1802058E3,-5.1108743E2,3.4342857E1,-8.8308057E2,1.2712461E2,-1.2399418E3,2.0501711E3,-2.2410955E3,-5.6507587E2,1.883922E3,7.9838995E2,3.0184878E3,-2.2170566E3,2.4848618E3,-8.929224E2,2.9075632E2,8.22703E2,2.569636E3,5.742034E3,2.116097E3,-5.772511E2,-2.2181704E3,5.117164E3,-6.5687964E2,-3.4439503E1,7.346087E2,-8.5416956E2,1.1149214E3,1.8463127E2,1.4419896E3,-3.3763562E2,2.7112445E2,-3.6528586E2,1.9283362E3,-3.9353342E2,1.0928985E2,-4.639243E2,2.4684406E2,-1.7226944E2,-3.0468237E2,-5.9615234E1,9.622076E2,-6.2062537E2,-1.4005424E2,1.4120496E2,1.0661182E3,-4.1594736E2,-8.8881854E2,3.5521115E2,-4.174379E2,1.8881024E3,4.238946E2,-1.1733087E3,4.2972906E2,-2.7699463E2,9.2013086E2,-1.9731657E2,-5.12891E2,5.1870233E2,-1.1174377E2,3.4577216E2,-8.6918646E2,1.191949E3,-9.066055E1,-9.249073E2,1.9106327E3,1.3470298E3,-3.7154736E2,8.5476465E2,-4.0485675E2,-1.8785889E0,-7.483194E2,-7.159817E2,2.5241865E3,1.5987848E3,-4.5818954E2],"categories":[],"categories_nodes":[],"categories_segments":[],"categories_sizes":[],"default_left":[0,0,0,0,0,0,0,0,0,0,0,0,0,0,0,0,0,0,0,0,0,0,0,0,0,0,0,0,0,0,0,0,0,0,0,0,0,0,0,0,0,0,0,0,0,0,0,0,0,0,0,0,0,0,0,0,0,0,0,0,0,0,0,0,0,0,0,0,0,0,0,0,0,0,0,0,0,0,0,0,0,0,0,0,0,0,0,0,0,0,0,0,0,0,0,0,0,0,0,0,0,0,0,0,0,0,0,0,0,0,0,0,0],"id":4,"left_children":[1,3,5,7,9,11,13,15,17,19,21,23,25,27,29,31,33,-1,35,37,39,41,43,45,47,49,51,53,55,57,59,61,-1,-1,63,65,67,69,71,73,75,77,79,81,83,-1,-1,85,87,89,91,93,95,97,99,101,103,105,107,109,111,-1,-1,-1,-1,-1,-1,-1,-1,-1,-1,-1,-1,-1,-1,-1,-1,-1,-1,-1,-1,-1,-1,-1,-1,-1,-1,-1,-1,-1,-1,-1,-1,-1,-1,-1,-1,-1,-1,-1,-1,-1,-1,-1,-1,-1,-1,-1,-1,-1,-1,-1,-1],"loss_changes":[2.73991E8,1.25198616E8,2.2135854E8,5.9418484E7,7.046101E7,1.7806379E8,3.916896E8,4.7567016E7,3.1044158E7,4.2143696E7,1.773915E8,9.109696E7,1.3460832E8,2.3297069E8,6.0029308E7,1.2098213E7,7.891376E7,0E0,3.1939058E7,5.4473336E7,1.9807104E7,1.4443259E8,1.3960605E8,8.122712E7,3.715155E7,7.393155E7,1.9229565E8,1.0483728E8,9.463642E7,2.8576104E7,1.0330789E8,1.4850279E7,0E0,0E0,9.223369E7,5.478207E7,2.8641664E7,3.223962E8,5.6551E7,3.3678304E7,1.5052448E7,1.9936395E8,8.040922E7,1.2419429E8,1.4426E6,0E0,0E0,3.289438E7,4.369048E7,3.0330798E7,6.037893E7,3.9791056E7,3.688492E8,1.3464082E8,2.1079725E8,1.3025562E8,1.2501793E8,5.6768324E7,1.648112E7,1.1903425E8,8.108595E7,0E0,0E0,0E0,0E0,0E0,0E0,0E0,0E0,0E0,0E0,0E0,0E0,0E0,0E0,0E0,0E0,0E0,0E0,0E0,0E0,0E0,0E0,0E0,0E0,0E0,0E0,0E0,0E0,0E0,0E0,0E0,0E0,0E0,0E0,0E0,0E0,0E0,0E0,0E0,0E0,0E0,0E0,0E0,0E0,0E0,0E0,0E0,0E0,0E0,0E0,0E0,0E0],"parents":[2147483647,0,0,1,1,2,2,3,3,4,4,5,5,6,6,7,7,8,8,9,9,10,10,11,11,12,12,13,13,14,14,15,15,16,16,18,18,19,19,20,20,21,21,22,22,23,23,24,24,25,25,26,26,27,27,28,28,29,29,30,30,31,31,34,34,35,35,36,36,37,37,38,38,39,39,40,40,41,41,42,42,43,43,44,44,47,47,48,48,49,49,50,50,51,51,52,52,53,53,54,54,55,55,56,56,57,57,58,58,59,59,60,60],"right_children":[2,4,6,8,10,12,14,16,18,20,22,24,26,28,30,32,34,-1,36,38,40,42,44,46,48,50,52,54,56,58,60,62,-1,-1,64,66,68,70,72,74,76,78,80,82,84,-1,-1,86,88,90,92,94,96,98,100,102,104,106,108,110,112,-1,-1,-1,-1,-1,-1,-1,-1,-1,-1,-1,-1,-1,-1,-1,-1,-1,-1,-1,-1,-1,-1,-1,-1,-1,-1,-1,-1,-1,-1,-1,-1,-1,-1,-1,-1,-1,-1,-1,-1,-1,-1,-1,-1,-1,-1,-1,-1,-1,-1,-1,-1],"split_conditions":[-9.074828E1,-1.2055291E2,3.9334255E1,4.165944E1,-9.711927E1,-8.9299774E1,4.4547085E1,3.847974E1,4.25063E1,-1.0917685E2,4.402351E1,3.1321554E1,1.6742498E1,-7.429926E1,-6.712081E1,3.6654606E1,3.8519234E1,-8.376604E2,4.8296074E1,4.087028E1,3.004413E1,3.948028E1,4.6978302E1,-9.0614746E1,-8.948922E1,-1.3759E1,3.3614315E1,4.15642E1,4.367741E1,-8.717879E1,2.3158E0,-1.3759E1,-5.218358E2,2.883965E3,3.9183926E1,4.783741E1,6.03886E1,-1.1363573E2,4.5427128E1,2.8352516E1,-1.02560326E2,3.871241E1,4.13534E1,-9.420722E1,-9.601392E1,-5.6507587E2,1.883922E3,3.7113037E1,3.5262054E1,7.12761E1,-6.838402E1,3.23457E1,3.634118E1,4.13534E1,4.3661465E1,3.9933224E1,-6.985075E1,4.506583E1,4.464253E1,4.6978302E1,4.735424E1,-3.4439503E1,7.346087E2,-8.5416956E2,1.1149214E3,1.8463127E2,1.4419896E3,-3.3763562E2,2.7112445E2,-3.6528586E2,1.9283362E3,-3.9353342E2,1.0928985E2,-4.639243E2,2.4684406E2,-1.7226944E2,-3.0468237E2,-5.9615234E1,9.622076E2,-6.2062537E2,-1.4005424E2,1.4120496E2,1.0661182E3,-4.1594736E2,-8.8881854E2,3.5521115E2,-4.174379E2,1.8881024E3,4.238946E2,-1.1733087E3,4.2972906E2,-2.7699463E2,9.2013086E2,-1.9731657E2,-5.12891E2,5.1870233E2,-1.1174377E2,3.4577216E2,-8.6918646E2,1.191949E3,-9.066055E1,-9.249073E2,1.9106327E3,1.3470298E3,-3.7154736E2,8.5476465E2,-4.0485675E2,-1.8785889E0,-7.483194E2,-7.159817E2,2.5241865E3,1.5987848E3,-4.5818954E2],"split_indices":[1,1,0,0,1,1,0,0,0,1,0,0,0,1,1,0,0,0,0,0,0,0,0,1,1,0,0,0,0,1,1,0,0,0,0,0,0,1,0,0,1,0,0,1,1,0,0,0,0,1,1,0,0,0,0,0,1,0,0,0,0,0,0,0,0,0,0,0,0,0,0,0,0,0,0,0,0,0,0,0,0,0,0,0,0,0,0,0,0,0,0,0,0,0,0,0,0,0,0,0,0,0,0,0,0,0,0,0,0,0,0,0,0],"split_type":[0,0,0,0,0,0,0,0,0,0,0,0,0,0,0,0,0,0,0,0,0,0,0,0,0,0,0,0,0,0,0,0,0,0,0,0,0,0,0,0,0,0,0,0,0,0,0,0,0,0,0,0,0,0,0,0,0,0,0,0,0,0,0,0,0,0,0,0,0,0,0,0,0,0,0,0,0,0,0,0,0,0,0,0,0,0,0,0,0,0,0,0,0,0,0,0,0,0,0,0,0,0,0,0,0,0,0,0,0,0,0,0,0],"sum_hessian":[1.89E3,9.59E2,9.31E2,6.7E1,8.92E2,6.8E2,2.51E2,2E1,4.7E1,5.09E2,3.83E2,5.2E1,6.28E2,1.9E2,6.1E1,9E0,1.1E1,2E0,4.5E1,1.03E2,4.06E2,3.23E2,6E1,7E0,4.5E1,3.1E1,5.97E2,1.57E2,3.3E1,4.5E1,1.6E1,8E0,1E0,1E0,1E1,1.9E1,2.6E1,2.4E1,7.9E1,2.5E1,3.81E2,1.97E2,1.26E2,5.2E1,8E0,1E0,6E0,3.6E1,9E0,3E0,2.8E1,2.12E2,3.85E2,1.06E2,5.1E1,1.9E1,1.4E1,1.9E1,2.6E1,3E0,1.3E1,5E0,3E0,2E0,8E0,1.6E1,3E0,1.4E1,1.2E1,1.7E1,7E0,4.1E1,3.8E1,8E0,1.7E1,1.16E2,2.65E2,1.79E2,1.8E1,6E1,6.6E1,2.6E1,2.6E1,5E0,3E0,3.1E1,5E0,2E0,7E0,2E0,1E0,4E0,2.4E1,1.66E2,4.6E1,1.21E2,2.64E2,9.8E1,8E0,3.4E1,1.7E1,1E0,1.8E1,8E0,6E0,3E0,1.6E1,3E0,2.3E1,1E0,2E0,1E0,1.2E1],"tree_param":{"num_deleted":"0","num_feature":"2","num_nodes":"113","size_leaf_vector":"1"}},{"base_weights":[3.1882524E1,-2.405507E1,1.509308E3,2.731359E1,-1.025185E3,5.3212715E3,9.221443E2,-1.3136563E1,2.251191E3,1.3495598E3,-1.2131132E3,-1.9376611E3,9.273682E3,1.4409675E3,-1.1043542E3,-2.3261981E2,2.69326E2,3.2112786E3,-4.5249847E2,-1.7457542E3,1.2322452E3,-4.216351E2,-6.934007E1,-1.0862095E3,-5.0924805E1,1.3875181E3,3.714185E3,9.1090924E2,4.4911875E3,-6.981297E2,2.2285955E3,-1.6469514E2,-1.415522E3,2.5240088E3,2.4710129E2,2.232773E3,3.7107605E3,4.7822946E2,-9.075853E2,-7.118142E2,-2.237589E2,-1.9052477E3,2.3900935E3,1.8141127E3,-1.3129535E3,5.6434424E2,7.295234E3,7.864488E2,1.5748412E2,-6.0578022E1,5.777739E2,5.9099805E2,-5.2160693E2,2.755214E2,2.3742804E1,9.0004425E2,-5.9113477E2,-4.977478E2,2.6942734E2,4.7905518E1,-9.528433E2,1.7315608E3,1.6780934E2,3.9228036E2,2.5514187E3,7.838396E2,-8.255877E2,-1.52963E3,1.2454911E3,3.1258025E3,-3.115629E2],"categories":[],"categories_nodes":[],"categories_segments":[],"categories_sizes":[],"default_left":[0,0,0,0,0,0,0,0,0,0,0,0,0,0,0,0,0,0,0,0,0,0,0,0,0,0,0,0,0,0,0,0,0,0,0,0,0,0,0,0,0,0,0,0,0,0,0,0,0,0,0,0,0,0,0,0,0,0,0,0,0,0,0,0,0,0,0,0,0,0,0],"id":5,"left_children":[1,3,5,7,9,11,13,15,17,19,21,23,25,27,29,31,33,35,37,39,-1,-1,41,-1,-1,-1,-1,43,45,-1,47,49,51,-1,53,55,-1,-1,57,-1,-1,59,61,63,65,67,69,-1,-1,-1,-1,-1,-1,-1,-1,-1,-1,-1,-1,-1,-1,-1,-1,-1,-1,-1,-1,-1,-1,-1,-1],"loss_changes":[1.5631541E8,9.37789E7,1.4953203E8,1.5610354E8,4.1356184E7,2.7618176E8,6.5726412E7,1.0576549E8,8.192222E7,6.6927144E7,1.8161736E7,1.1287233E7,2.9396672E7,7.513186E7,5.816566E7,7.6901176E7,1.32946104E8,1.784872E8,9.829193E6,7.37847E5,0E0,0E0,6.325253E7,0E0,0E0,0E0,0E0,8.875166E7,7.296032E7,0E0,1.30131E6,7.114241E7,6.0317864E7,0E0,8.392693E7,7.687145E7,0E0,0E0,1.2346873E7,0E0,0E0,2.150171E7,3.391811E7,9.3934296E7,8.062964E7,1.0242917E8,1.1496338E8,0E0,0E0,0E0,0E0,0E0,0E0,0E0,0E0,0E0,0E0,0E0,0E0,0E0,0E0,0E0,0E0,0E0,0E0,0E0,0E0,0E0,0E0,0E0,0E0],"parents":[2147483647,0,0,1,1,2,2,3,3,4,4,5,5,6,6,7,7,8,8,9,9,10,10,11,11,12,12,13,13,14,14,15,15,16,16,17,17,18,18,19,19,22,22,27,27,28,28,30,30,31,31,32,32,34,34,35,35,38,38,41,41,42,42,43,43,44,44,45,45,46,46],"right_children":[2,4,6,8,10,12,14,16,18,20,22,24,26,28,30,32,34,36,38,40,-1,-1,42,-1,-1,-1,-1,44,46,-1,48,50,52,-1,54,56,-1,-1,58,-1,-1,60,62,64,66,68,70,-1,-1,-1,-1,-1,-1,-1,-1,-1,-1,-1,-1,-1,-1,-1,-1,-1,-1,-1,-1,-1,-1,-1,-1],"split_conditions":[-1.51804E1,-6.985075E1,2.3158E0,-7.429926E1,1.6742498E1,1.21784E1,4.735424E1,-9.074828E1,4.4465485E1,7.1315E0,-6.566686E1,8.554E-1,3.6178474E1,3.9933224E1,5.74684E1,-9.148183E1,2.0194742E1,4.4352913E1,-7.309049E1,-1.3759E1,1.2322452E3,-4.216351E2,1.8328646E1,-1.0862095E3,-5.0924805E1,1.3875181E3,3.714185E3,3.0717804E1,1.027103E2,-6.981297E2,7.12761E1,-9.17207E1,3.0878828E1,2.5240088E3,-8.836363E1,4.3969746E1,3.7107605E3,4.7822946E2,4.482017E1,-7.118142E2,-2.237589E2,1.8097597E1,1.834946E1,2.9622099E1,1.027103E2,4.1201355E1,4.367741E1,7.864488E2,1.5748412E2,-6.0578022E1,5.777739E2,5.9099805E2,-5.2160693E2,2.755214E2,2.3742804E1,9.0004425E2,-5.9113477E2,-4.977478E2,2.6942734E2,4.7905518E1,-9.528433E2,1.7315608E3,1.6780934E2,3.9228036E2,2.5514187E3,7.838396E2,-8.255877E2,-1.52963E3,1.2454911E3,3.1258025E3,-3.115629E2],"split_indices":[1,1,1,1,0,0,0,1,0,0,1,0,0,0,0,1,0,0,1,0,0,0,0,0,0,0,0,0,1,0,1,1,0,0,1,0,0,0,0,0,0,0,0,0,1,0,0,0,0,0,0,0,0,0,0,0,0,0,0,0,0,0,0,0,0,0,0,0,0,0,0],"split_type":[0,0,0,0,0,0,0,0,0,0,0,0,0,0,0,0,0,0,0,0,0,0,0,0,0,0,0,0,0,0,0,0,0,0,0,0,0,0,0,0,0,0,0,0,0,0,0,0,0,0,0,0,0,0,0,0,0,0,0,0,0,0,0,0,0,0,0,0,0,0,0],"sum_hessian":[1.89E3,1.822E3,6.8E1,1.734E3,8.8E1,8E0,6E1,1.704E3,3E1,6E0,8.2E1,3E0,5E0,4.8E1,1.2E1,9.59E2,7.45E2,2.2E1,8E0,3E0,3E0,7E1,1.2E1,1E0,2E0,3E0,2E0,4.2E1,6E0,9E0,3E0,9.08E2,5.1E1,1E0,7.44E2,2.1E1,1E0,1E0,7E0,1E0,2E0,7E0,5E0,3E1,1.2E1,3E0,3E0,2E0,1E0,8.93E2,1.5E1,4E0,4.7E1,1.48E2,5.96E2,1.8E1,3E0,5E0,2E0,3E0,4E0,1E0,4E0,2.9E1,1E0,3E0,9E0,1E0,2E0,2E0,1E0],"tree_param":{"num_deleted":"0","num_feature":"2","num_nodes":"71","size_leaf_vector":"1"}},{"base_weights":[3.193779E1,-1.2149009E1,1.1962609E3,-2.7347937E2,1.0878104E2,4.165398E3,7.385806E2,3.783795E2,-5.31043E2,-2.8088177E2,2.4472948E2,-1.6406464E3,7.3418613E3,2.124647E3,1.9854266E2,1.6057954E3,-3.0511108E1,-4.3616693E2,-9.991025E2,3.2040118E2,-5.5588165E2,1.1287708E3,5.9753845E1,-9.232781E2,-4.0739845E1,3.5844219E3,2.9713481E3,3.8315337E3,-8.611243E2,-4.1730258E2,8.613492E2,6.44184E2,2.5201682E3,-1.7227112E3,2.730956E2,-5.0762695E2,9.7665546E2,-1.7348285E3,-6.410801E2,2.0521536E3,-1.8148264E2,-8.98368E2,-1.0527183E2,4.9357028E2,3.6541484E3,-9.909146E2,3.454087E2,1.2641125E3,2.5448439E2,-7.549984E2,4.718019E3,3.064276E2,-1.3451201E3,4.4716953E2,-2.5806162E3,2.8753503E3,-7.5414E2,4.6024213E2,-4.7964493E2,-2.7224295E2,-7.583091E2,1.7798977E1,6.95794E2,-2.1708968E2,-5.9413677E1,8.3965704E2,-8.1514206E1,-6.2476227E2,-3.0035516E2,-2.7268927E2,1.02785324E2,-1.7108765E2,1.0466432E3,-1.16460106E2,8.9907697E2,-1.3560464E2,-4.9170087E2,8.3247736E2,-1.9979326E2,2.0824297E3,1.1668993E2,1.8434884E3,-4.979016E2,1.8149007E2,-3.5387634E2,-2.0550863E1,1.9654234E2,2.301159E2,1.8905135E3,-5.9744885E2,-1.5721744E2,-1.7715198E2,9.789687E2,-2.84818E2,-9.129681E2,1.6421783E3,5.935216E2,-5.0963464E2,5.3880005E2],"categories":[],"categories_nodes":[],"categories_segments":[],"categories_sizes":[],"default_left":[0,0,0,0,0,0,0,0,0,0,0,0,0,0,0,0,0,0,0,0,0,0,0,0,0,0,0,0,0,0,0,0,0,0,0,0,0,0,0,0,0,0,0,0,0,0,0,0,0,0,0,0,0,0,0,0,0,0,0,0,0,0,0,0,0,0,0,0,0,0,0,0,0,0,0,0,0,0,0,0,0,0,0,0,0,0,0,0,0,0,0,0,0,0,0,0,0,0,0],"id":6,"left_children":[1,3,5,7,9,11,13,15,17,19,21,23,25,27,29,31,33,35,37,39,41,43,45,-1,-1,47,-1,49,51,53,55,57,-1,59,61,63,65,67,69,71,73,75,77,79,81,83,85,-1,-1,-1,87,-1,89,91,93,95,97,-1,-1,-1,-1,-1,-1,-1,-1,-1,-1,-1,-1,-1,-1,-1,-1,-1,-1,-1,-1,-1,-1,-1,-1,-1,-1,-1,-1,-1,-1,-1,-1,-1,-1,-1,-1,-1,-1,-1,-1,-1,-1],"loss_changes":[9.7081976E7,5.7641456E7,9.068868E7,9.707645E7,6.6127376E7,1.7802958E8,4.523841E7,8.235711E7,1.7948992E7,5.358705E7,1.5119419E8,8.231606E6,2.2271744E7,8.993778E7,1.8727824E7,2.6247936E8,6.4177116E7,3.5428064E7,1.7062872E7,8.902454E7,3.4166184E7,2.5485578E8,2.3024072E8,0E0,0E0,3.31286E6,0E0,7.377706E7,7.7519625E6,4.6036956E7,7.374755E7,7.631119E7,0E0,1.0174968E7,4.6227976E7,2.1924184E7,3.943175E7,3.527136E6,1.2960244E7,8.86434E7,5.3726028E7,4.091276E7,1.5849742E8,8.43068E7,4.3374205E8,5.0094E7,7.7350584E7,0E0,0E0,0E0,5.7737424E7,0E0,2.14063E6,5.4525788E7,2.393128E6,1.247816E7,3.436762E7,0E0,0E0,0E0,0E0,0E0,0E0,0E0,0E0,0E0,0E0,0E0,0E0,0E0,0E0,0E0,0E0,0E0,0E0,0E0,0E0,0E0,0E0,0E0,0E0,0E0,0E0,0E0,0E0,0E0,0E0,0E0,0E0,0E0,0E0,0E0,0E0,0E0,0E0,0E0,0E0,0E0,0E0],"parents":[2147483647,0,0,1,1,2,2,3,3,4,4,5,5,6,6,7,7,8,8,9,9,10,10,11,11,12,12,13,13,14,14,15,15,16,16,17,17,18,18,19,19,20,20,21,21,22,22,25,25,27,27,28,28,29,29,30,30,31,31,33,33,34,34,35,35,36,36,37,37,38,38,39,39,40,40,41,41,42,42,43,43,44,44,45,45,46,46,50,50,52,52,53,53,54,54,55,55,56,56],"right_children":[2,4,6,8,10,12,14,16,18,20,22,24,26,28,30,32,34,36,38,40,42,44,46,-1,-1,48,-1,50,52,54,56,58,-1,60,62,64,66,68,70,72,74,76,78,80,82,84,86,-1,-1,-1,88,-1,90,92,94,96,98,-1,-1,-1,-1,-1,-1,-1,-1,-1,-1,-1,-1,-1,-1,-1,-1,-1,-1,-1,-1,-1,-1,-1,-1,-1,-1,-1,-1,-1,-1,-1,-1,-1,-1,-1,-1,-1,-1,-1,-1,-1,-1],"split_conditions":[-1.51804E1,-9.711927E1,2.3158E0,-1.09846466E2,3.3952736E1,1.21784E1,1.21784E1,4.087028E1,4.501607E1,-8.940983E1,3.634118E1,8.554E-1,3.6178474E1,1.345825E2,3.728632E1,-1.1363573E2,4.311364E1,4.424886E1,-1.03507935E2,3.0717804E1,-8.1727135E1,-8.204824E1,3.776707E1,-9.232781E2,-4.0739845E1,3.5918995E1,2.9713481E3,-1.3759E1,-1.3759E1,3.519616E1,4.735424E1,-1.18477554E2,2.5201682E3,-1.1289847E2,-1.11480995E2,-9.976229E1,-1.02560326E2,4.714E1,4.8296074E1,-9.624542E1,-8.95539E1,-8.343439E1,-7.957053E1,-9.694853E1,-7.753406E1,-9.2531555E1,-8.969377E1,1.2641125E3,2.5448439E2,-7.549984E2,1.84867E1,3.064276E2,8.554E-1,2.9622099E1,1.027103E2,3.886246E1,5.74684E1,4.6024213E2,-4.7964493E2,-2.7224295E2,-7.583091E2,1.7798977E1,6.95794E2,-2.1708968E2,-5.9413677E1,8.3965704E2,-8.1514206E1,-6.2476227E2,-3.0035516E2,-2.7268927E2,1.02785324E2,-1.7108765E2,1.0466432E3,-1.16460106E2,8.9907697E2,-1.3560464E2,-4.9170087E2,8.3247736E2,-1.9979326E2,2.0824297E3,1.1668993E2,1.8434884E3,-4.979016E2,1.8149007E2,-3.5387634E2,-2.0550863E1,1.9654234E2,2.301159E2,1.8905135E3,-5.9744885E2,-1.5721744E2,-1.7715198E2,9.789687E2,-2.84818E2,-9.129681E2,1.6421783E3,5.935216E2,-5.0963464E2,5.3880005E2],"split_indices":[1,1,1,1,0,0,0,0,0,1,0,0,0,1,0,1,0,0,1,0,1,1,0,0,0,0,0,0,0,0,0,1,0,1,1,1,1,0,0,1,1,1,1,1,1,1,1,0,0,0,1,0,0,0,1,0,0,0,0,0,0,0,0,0,0,0,0,0,0,0,0,0,0,0,0,0,0,0,0,0,0,0,0,0,0,0,0,0,0,0,0,0,0,0,0,0,0,0,0],"split_type":[0,0,0,0,0,0,0,0,0,0,0,0,0,0,0,0,0,0,0,0,0,0,0,0,0,0,0,0,0,0,0,0,0,0,0,0,0,0,0,0,0,0,0,0,0,0,0,0,0,0,0,0,0,0,0,0,0,0,0,0,0,0,0,0,0,0,0,0,0,0,0,0,0,0,0,0,0,0,0,0,0,0,0,0,0,0,0,0,0,0,0,0,0,0,0,0,0,0,0],"sum_hessian":[1.89E3,1.822E3,6.8E1,5.76E2,1.246E3,8E0,6E1,1.63E2,4.13E2,3.22E2,9.24E2,3E0,5E0,1.6E1,4.4E1,4E1,1.23E2,3.45E2,6.8E1,1.01E2,2.21E2,1.59E2,7.65E2,1E0,2E0,3E0,2E0,1E1,6E0,2.3E1,2.1E1,3.6E1,4E0,1.8E1,1.05E2,3.29E2,1.6E1,2.1E1,4.7E1,2.2E1,7.9E1,1.25E2,9.6E1,1.28E2,3.1E1,1.63E2,6.02E2,2E0,1E0,1E0,9E0,1E0,5E0,1.7E1,6E0,9E0,1.2E1,2.6E1,1E1,1E1,8E0,9.6E1,9E0,1.93E2,1.36E2,6E0,1E1,1.3E1,8E0,3.7E1,1E1,8E0,1.4E1,7.5E1,4E0,7.9E1,4.6E1,1.5E1,8.1E1,1E0,1.27E2,2.1E1,1E1,1.7E1,1.46E2,2.58E2,3.44E2,3E0,6E0,2E0,3E0,1.3E1,4E0,2E0,4E0,1E0,8E0,9E0,3E0],"tree_param":{"num_deleted":"0","num_feature":"2","num_nodes":"99","size_leaf_vector":"1"}},{"base_weights":[2.9281075E1,-9.076843E0,8.54541E2,2.3206722E1,-7.658729E2,-1.5939304E3,9.649033E2,-4.5473146E0,1.5489302E3,5.9668335E2,-8.3184973E2,-8.112145E2,2.6046344E2,1.1772515E3,-8.6468726E2,8.542835E2,-3.965233E1,2.2691306E3,-4.6368533E2,-1.390485E2,5.6658276E2,-5.1083127E2,-7.400713E2,1.3882374E3,-1.094751E1,-4.77959E2,-4.2894223E2,1.827086E1,2.258054E3,7.223988E2,-6.906681E1,1.4254048E3,3.124665E3,3.7701373E2,-8.358241E2,-2.2557529E2,-2.4066048E2,9.948221E2,3.5944812E3,-2.492055E2,5.508596E2,3.1799765E2,-1.5308613E3,1.2570881E2,-3.1558234E2,2.0205358E3,5.372639E2,5.536959E2,3.8836224E1,-1.0562461E2,1.3743661E1,6.008988E2,-5.023514E2,-4.2244635E2,1.762334E2,2.0704337E2,-3.1534058E2,3.5650085E2,-1.3892137E3,2.426621E3,3.4646225E2,-1.2184344E2,4.8218512E2,-7.419292E2,5.3041553E1],"categories":[],"categories_nodes":[],"categories_segments":[],"categories_sizes":[],"default_left":[0,0,0,0,0,0,0,0,0,0,0,0,0,0,0,0,0,0,0,0,0,0,0,0,0,0,0,0,0,0,0,0,0,0,0,0,0,0,0,0,0,0,0,0,0,0,0,0,0,0,0,0,0,0,0,0,0,0,0,0,0,0,0,0,0],"id":7,"left_children":[1,3,5,7,9,11,13,15,17,19,21,-1,-1,23,25,27,29,31,33,-1,-1,-1,35,37,39,-1,41,43,45,47,49,51,-1,-1,53,-1,55,57,59,-1,-1,61,63,-1,-1,-1,-1,-1,-1,-1,-1,-1,-1,-1,-1,-1,-1,-1,-1,-1,-1,-1,-1,-1,-1],"loss_changes":[5.9867844E7,4.419097E7,2.4236376E7,7.34756E7,7.148736E6,1.3280755E7,3.2487272E7,5.143838E7,4.598625E7,6.3540475E6,4.414984E6,0E0,0E0,1.8315824E7,2.17361E6,7.858792E7,3.6788636E7,1.4324056E8,6.8124315E6,0E0,0E0,0E0,2.09512E5,5.023829E7,1.9695402E7,0E0,6.248282E6,1.8883346E7,4.0227456E7,4.038876E7,5.1353384E7,4.2744596E7,0E0,0E0,7.3438515E6,0E0,2.9886172E6,6.428834E7,8.93365E7,0E0,0E0,5.3209235E6,5.2643295E6,0E0,0E0,0E0,0E0,0E0,0E0,0E0,0E0,0E0,0E0,0E0,0E0,0E0,0E0,0E0,0E0,0E0,0E0,0E0,0E0,0E0,0E0],"parents":[2147483647,0,0,1,1,2,2,3,3,4,4,5,5,6,6,7,7,8,8,9,9,10,10,13,13,14,14,15,15,16,16,17,17,18,18,22,22,23,23,24,24,26,26,27,27,28,28,29,29,30,30,31,31,34,34,36,36,37,37,38,38,41,41,42,42],"right_children":[2,4,6,8,10,12,14,16,18,20,22,-1,-1,24,26,28,30,32,34,-1,-1,-1,36,38,40,-1,42,44,46,48,50,52,-1,-1,54,-1,56,58,60,-1,-1,62,64,-1,-1,-1,-1,-1,-1,-1,-1,-1,-1,-1,-1,-1,-1,-1,-1,-1,-1,-1,-1,-1,-1],"split_conditions":[-6.566686E1,-6.985075E1,-1.3759E1,-7.429926E1,1.6742498E1,7.12761E1,1.345825E2,3.044397E1,4.4465485E1,7.1315E0,-6.838402E1,-8.112145E2,2.6046344E2,5.04E1,8.554E-1,-9.624542E1,-1.2055291E2,4.4352913E1,-7.309049E1,-1.390485E2,5.6658276E2,-5.1083127E2,2.0194742E1,4.1201355E1,5.74684E1,-4.77959E2,1.6742498E1,-9.760123E1,2.0194742E1,4.4938377E1,-9.760123E1,4.3969746E1,3.124665E3,3.7701373E2,4.482017E1,-2.2557529E2,4.464253E1,4.0261868E1,4.367741E1,-2.492055E2,5.508596E2,1.21784E1,3.567283E1,1.2570881E2,-3.1558234E2,2.0205358E3,5.372639E2,5.536959E2,3.8836224E1,-1.0562461E2,1.3743661E1,6.008988E2,-5.023514E2,-4.2244635E2,1.762334E2,2.0704337E2,-3.1534058E2,3.5650085E2,-1.3892137E3,2.426621E3,3.4646225E2,-1.2184344E2,4.8218512E2,-7.419292E2,5.3041553E1],"split_indices":[1,1,0,1,0,1,1,0,0,0,1,0,0,0,0,1,1,0,1,0,0,0,0,0,0,0,0,1,0,0,1,0,0,0,0,0,0,0,0,0,0,0,0,0,0,0,0,0,0,0,0,0,0,0,0,0,0,0,0,0,0,0,0,0,0],"split_type":[0,0,0,0,0,0,0,0,0,0,0,0,0,0,0,0,0,0,0,0,0,0,0,0,0,0,0,0,0,0,0,0,0,0,0,0,0,0,0,0,0,0,0,0,0,0,0,0,0,0,0,0,0,0,0,0,0,0,0,0,0,0,0,0,0],"sum_hessian":[1.89E3,1.807E3,8.3E1,1.734E3,7.3E1,3E0,8E1,1.704E3,3E1,3E0,7E1,2E0,1E0,7.2E1,8E0,6.6E1,1.638E3,2.2E1,8E0,2E0,1E0,5E0,6.5E1,6.1E1,1.1E1,2E0,6E0,4.2E1,2.4E1,6E1,1.578E3,2.1E1,1E0,1E0,7E0,6.3E1,2E0,5.3E1,8E0,8E0,3E0,4E0,2E0,3.1E1,1.1E1,1E0,2.3E1,2E1,4E1,4.55E2,1.123E3,1.8E1,3E0,5E0,2E0,1E0,1E0,5.2E1,1E0,2E0,6E0,3E0,1E0,1E0,1E0],"tree_param":{"num_deleted":"0","num_feature":"2","num_nodes":"65","size_leaf_vector":"1"}},{"base_weights":[2.392885E1,-1.2927183E0,6.899432E2,4.5140045E1,-4.2537146E2,2.7617607E3,3.7295465E2,1.1624904E1,3.4545793E3,4.473349E2,-6.942193E2,-1.6568325E3,5.2471963E3,1.4626113E3,-4.6981327E1,2.868721E1,-1.7102618E3,1.0738934E4,1.6468906E3,-4.9857533E1,2.3311572E3,-1.929361E3,-5.3920844E2,-8.3826154E2,-1.03892E2,2.6213691E3,2.0997703E3,2.5882866E3,-5.152515E2,-6.097262E2,5.690577E2,3.7608016E0,1.3446761E3,-8.3483344E2,-1.3582754E3,-6.1415848E1,4.893936E3,-8.926666E1,3.3958003E3,-4.4728522E2,6.5711896E2,-1.437597E2,2.7423516E3,-1.1417909E3,-7.4272833E2,-3.8446902E2,-1.2391609E3,9.399899E2,1.6283673E2,-5.200665E2,3.1938264E3,2.2139386E2,-8.4711993E2,1.3886204E1,-6.378592E2,1.3423765E3,1.7000444E2,6.3657594E0,-5.128738E2,-1.1961683E2,8.685211E2,1.448128E2,-5.1159958E2,2.821171E2,-4.0620636E2,1.8943734E3,-1.1157818E2,4.701691E2,-1.8302756E2,-3.3219794E2,3.8915558E2,1.86063E3,4.086263E2,-4.9852563E2,-6.191752E1,-1.4620253E2,6.850399E2,2.1428076E1,-4.8864886E2,9.812725E1,1.3127101E3,-3.823672E2,-9.442859E1,-2.2980672E2,6.5845593E2,-8.6313153E2,1.9265382E2],"categories":[],"categories_nodes":[],"categories_segments":[],"categories_sizes":[],"default_left":[0,0,0,0,0,0,0,0,0,0,0,0,0,0,0,0,0,0,0,0,0,0,0,0,0,0,0,0,0,0,0,0,0,0,0,0,0,0,0,0,0,0,0,0,0,0,0,0,0,0,0,0,0,0,0,0,0,0,0,0,0,0,0,0,0,0,0,0,0,0,0,0,0,0,0,0,0,0,0,0,0,0,0,0,0,0,0],"id":8,"left_children":[1,3,5,7,9,11,13,15,17,19,21,23,25,27,29,31,33,35,37,39,41,43,45,-1,-1,47,-1,49,51,53,55,57,59,-1,61,-1,-1,63,65,67,69,-1,71,73,-1,75,77,-1,-1,-1,79,-1,81,83,-1,-1,85,-1,-1,-1,-1,-1,-1,-1,-1,-1,-1,-1,-1,-1,-1,-1,-1,-1,-1,-1,-1,-1,-1,-1,-1,-1,-1,-1,-1,-1,-1],"loss_changes":[3.1765772E7,3.5916164E7,4.4285224E7,1.8781618E8,4.254309E7,1.0753287E8,2.7981468E7,4.790804E7,1.9299971E8,4.0390984E7,2.5381192E7,4.994573E6,9.255712E6,3.918296E7,1.5947245E7,5.2938784E7,2.2604E6,1.8634547E8,4.281248E7,1.012794E7,1.1714556E7,3.628124E6,1.2954048E7,0E0,0E0,2.555632E6,0E0,3.4324176E7,3.536512E6,2.2726088E7,3.3526618E7,4.7447064E7,8.224301E7,0E0,9.768142E6,0E0,0E0,1.1691414E7,7.932867E7,8.499612E6,1.6118111E7,0E0,2.975512E7,3.547997E6,0E0,2.938198E7,1.1351628E7,0E0,0E0,0E0,3.2449952E7,0E0,9.64116E5,3.2298492E7,0E0,0E0,3.206176E7,0E0,0E0,0E0,0E0,0E0,0E0,0E0,0E0,0E0,0E0,0E0,0E0,0E0,0E0,0E0,0E0,0E0,0E0,0E0,0E0,0E0,0E0,0E0,0E0,0E0,0E0,0E0,0E0,0E0,0E0],"parents":[2147483647,0,0,1,1,2,2,3,3,4,4,5,5,6,6,7,7,8,8,9,9,10,10,11,11,12,12,13,13,14,14,15,15,16,16,17,17,18,18,19,19,20,20,21,21,22,22,25,25,27,27,28,28,29,29,30,30,31,31,32,32,34,34,37,37,38,38,39,39,40,40,42,42,43,43,45,45,46,46,50,50,52,52,53,53,56,56],"right_children":[2,4,6,8,10,12,14,16,18,20,22,24,26,28,30,32,34,36,38,40,42,44,46,-1,-1,48,-1,50,52,54,56,58,60,-1,62,-1,-1,64,66,68,70,-1,72,74,-1,76,78,-1,-1,-1,80,-1,82,84,-1,-1,86,-1,-1,-1,-1,-1,-1,-1,-1,-1,-1,-1,-1,-1,-1,-1,-1,-1,-1,-1,-1,-1,-1,-1,-1,-1,-1,-1,-1,-1,-1],"split_conditions":[-1.51804E1,4.562975E1,2.3158E0,4.5427128E1,-1.179052E2,1.21784E1,1.21784E1,4.5211792E1,-1.1058908E2,-1.2079136E2,4.587932E1,8.554E-1,3.6178474E1,1.345825E2,3.728632E1,4.482017E1,-1.19617134E2,4.5526257E1,-9.538289E1,6.03886E1,4.587932E1,4.5766262E1,-9.1835106E1,-8.3826154E2,-1.03892E2,3.5918995E1,2.0997703E3,-1.3759E1,-1.3759E1,3.519616E1,3.886246E1,4.464253E1,-9.538289E1,-8.3483344E2,-1.179052E2,-6.1415848E1,4.893936E3,-9.8242065E1,-9.236711E1,4.5997128E1,-1.5985619E2,-1.437597E2,4.6283985E1,-9.678731E1,-7.4272833E2,-9.3226425E1,4.609687E1,9.399899E2,1.6283673E2,-5.200665E2,1.84867E1,2.2139386E2,8.554E-1,2.9622099E1,-6.378592E2,1.3423765E3,3.9933224E1,6.3657594E0,-5.128738E2,-1.1961683E2,8.685211E2,1.448128E2,-5.1159958E2,2.821171E2,-4.0620636E2,1.8943734E3,-1.1157818E2,4.701691E2,-1.8302756E2,-3.3219794E2,3.8915558E2,1.86063E3,4.086263E2,-4.9852563E2,-6.191752E1,-1.4620253E2,6.850399E2,2.1428076E1,-4.8864886E2,9.812725E1,1.3127101E3,-3.823672E2,-9.442859E1,-2.2980672E2,6.5845593E2,-8.6313153E2,1.9265382E2],"split_indices":[1,0,1,0,1,0,0,0,1,1,0,0,0,1,0,0,1,0,1,0,0,0,1,0,0,0,0,0,0,0,0,0,1,0,1,0,0,1,1,0,1,0,0,1,0,1,0,0,0,0,1,0,0,0,0,0,0,0,0,0,0,0,0,0,0,0,0,0,0,0,0,0,0,0,0,0,0,0,0,0,0,0,0,0,0,0,0],"split_type":[0,0,0,0,0,0,0,0,0,0,0,0,0,0,0,0,0,0,0,0,0,0,0,0,0,0,0,0,0,0,0,0,0,0,0,0,0,0,0,0,0,0,0,0,0,0,0,0,0,0,0,0,0,0,0,0,0,0,0,0,0,0,0,0,0,0,0,0,0,0,0,0,0,0,0,0,0,0,0,0,0,0,0,0,0,0,0],"sum_hessian":[1.89E3,1.822E3,6.8E1,1.643E3,1.79E2,8E0,6E1,1.628E3,1.5E1,4.2E1,1.37E2,3E0,5E0,1.6E1,4.4E1,1.613E3,1.5E1,2E0,1.3E1,3.4E1,8E0,1.4E1,1.23E2,1E0,2E0,3E0,2E0,1E1,6E0,2.3E1,2.1E1,1.584E3,2.9E1,2E0,1.3E1,1E0,1E0,7E0,6E0,2.2E1,1.2E1,1E0,7E0,7E0,7E0,1.02E2,2.1E1,2E0,1E0,1E0,9E0,1E0,5E0,1.7E1,6E0,1E0,2E1,1.569E3,1.5E1,1.4E1,1.5E1,2E0,1.1E1,4E0,3E0,3E0,3E0,1E0,2.1E1,3E0,9E0,1E0,6E0,4E0,3E0,9.9E1,3E0,5E0,1.6E1,3E0,6E0,2E0,3E0,1.3E1,4E0,2E0,1.8E1],"tree_param":{"num_deleted":"0","num_feature":"2","num_nodes":"87","size_leaf_vector":"1"}},{"base_weights":[2.210636E1,-7.84984E1,1.3951086E2,-6.357498E1,-1.9564976E3,2.3542095E3,5.790332E1,2.897778E2,-1.2782173E2,-2.4305728E3,2.043044E2,1.6357379E3,1.9525211E3,-1.5793475E2,3.683931E2,1.3051586E3,8.603981E1,2.3862543E2,-2.0216537E2,-4.510181E0,-8.4919714E2,-6.0432513E2,2.5103777E3,7.294299E1,-8.548801E2,5.6668866E2,-7.1436597E2,5.262434E2,1.6372893E3,-2.0191296E3,2.3937709E2,-1.6164223E2,1.6020079E3,-1.3445629E3,-1.6384799E2,1.5455927E2,-9.3126917E2,2.7656553E3,-1.9845085E2,-1.417586E2,2.098654E3,-3.4246865E3,-6.7186017E2,4.096478E2,1.6764067E3,-1.2880536E3,4.102193E2,2.886205E2,-1.3592856E3,4.4607394E2,-7.9297473E2,1.0339431E3,1.3636014E1,-4.4239658E2,5.708717E1,5.8553925E2,-2.2415201E2,-2.5692316E2,-6.0262634E2,-5.662849E1,4.1802823E2,-1.4102084E2,-4.164102E2,5.225477E2,1.4132231E3,7.834277E1,-1.6764566E2,-9.5272545E1,1.21939E2,1.1600571E2,1.0346685E3,-1.1831998E3,3.1575148E1,-2.4694271E1,-4.0744183E2,2.4407962E2,-5.89E1,3.548583E2,1.1840975E3,-1.2621094E0,-4.9641498E2,4.8827246E2,-4.2241776E1],"categories":[],"categories_nodes":[],"categories_segments":[],"categories_sizes":[],"default_left":[0,0,0,0,0,0,0,0,0,0,0,0,0,0,0,0,0,0,0,0,0,0,0,0,0,0,0,0,0,0,0,0,0,0,0,0,0,0,0,0,0,0,0,0,0,0,0,0,0,0,0,0,0,0,0,0,0,0,0,0,0,0,0,0,0,0,0,0,0,0,0,0,0,0,0,0,0,0,0,0,0,0,0],"id":9,"left_children":[1,3,5,7,9,11,13,15,17,19,-1,-1,21,23,25,27,29,31,33,-1,-1,35,37,39,41,43,45,47,-1,49,51,53,55,57,59,-1,61,63,65,67,69,71,73,75,77,79,81,-1,-1,-1,-1,-1,-1,-1,-1,-1,-1,-1,-1,-1,-1,-1,-1,-1,-1,-1,-1,-1,-1,-1,-1,-1,-1,-1,-1,-1,-1,-1,-1,-1,-1,-1,-1],"loss_changes":[2.2346408E7,2.8434268E7,1.5764632E8,2.3011228E7,1.165829E7,2.79344E7,5.6552264E7,3.215968E7,2.3395508E7,6.722372E6,0E0,0E0,4.2881336E7,8.019513E7,7.46932E7,8.122298E7,4.277026E7,7.938805E7,3.099033E7,0E0,0E0,2.675915E6,1.7144912E7,1.633938E8,5.6019504E7,5.037469E7,3.5367056E7,5.5052276E7,0E0,2.3623988E7,7.634106E7,5.2497036E7,2.8575064E7,5.7369E6,2.7072012E7,0E0,4.008265E5,3.560635E7,6.427996E5,3.290048E7,8.188286E7,1.5080224E7,4.72256E7,6.331468E7,3.5674216E7,1.6939644E7,1.297425E7,0E0,0E0,0E0,0E0,0E0,0E0,0E0,0E0,0E0,0E0,0E0,0E0,0E0,0E0,0E0,0E0,0E0,0E0,0E0,0E0,0E0,0E0,0E0,0E0,0E0,0E0,0E0,0E0,0E0,0E0,0E0,0E0,0E0,0E0,0E0,0E0],"parents":[2147483647,0,0,1,1,2,2,3,3,4,4,5,5,6,6,7,7,8,8,9,9,12,12,13,13,14,14,15,15,16,16,17,17,18,18,21,21,22,22,23,23,24,24,25,25,26,26,27,27,29,29,30,30,31,31,32,32,33,33,34,34,36,36,37,37,38,38,39,39,40,40,41,41,42,42,43,43,44,44,45,45,46,46],"right_children":[2,4,6,8,10,12,14,16,18,20,-1,-1,22,24,26,28,30,32,34,-1,-1,36,38,40,42,44,46,48,-1,50,52,54,56,58,60,-1,62,64,66,68,70,72,74,76,78,80,82,-1,-1,-1,-1,-1,-1,-1,-1,-1,-1,-1,-1,-1,-1,-1,-1,-1,-1,-1,-1,-1,-1,-1,-1,-1,-1,-1,-1,-1,-1,-1,-1,-1,-1,-1,-1],"split_conditions":[-8.969377E1,-8.980246E1,-8.9299774E1,-1.1058908E2,4.400545E1,3.1321554E1,3.7799908E1,3.9415615E1,3.3041634E1,3.379602E1,2.043044E2,1.6357379E3,3.359035E1,3.6423164E1,4.4547085E1,3.9183926E1,4.0096733E1,3.2022274E1,3.359035E1,-4.510181E0,-8.4919714E2,3.1723215E1,4.4547085E1,3.5857517E1,-8.8531364E1,-7.429926E1,4.68852E1,3.9132374E1,1.6372893E3,-1.2318637E2,4.087028E1,-9.976229E1,-9.16021E1,3.3219276E1,-9.0111206E1,1.5455927E2,3.3110096E1,4.1446346E1,4.609687E1,3.4078598E1,-8.204824E1,3.7431812E1,-8.1435844E1,-8.19604E1,4.424886E1,-8.783549E1,2.3158E0,2.886205E2,-1.3592856E3,4.4607394E2,-7.9297473E2,1.0339431E3,1.3636014E1,-4.4239658E2,5.708717E1,5.8553925E2,-2.2415201E2,-2.5692316E2,-6.0262634E2,-5.662849E1,4.1802823E2,-1.4102084E2,-4.164102E2,5.225477E2,1.4132231E3,7.834277E1,-1.6764566E2,-9.5272545E1,1.21939E2,1.1600571E2,1.0346685E3,-1.1831998E3,3.1575148E1,-2.4694271E1,-4.0744183E2,2.4407962E2,-5.89E1,3.548583E2,1.1840975E3,-1.2621094E0,-4.9641498E2,4.8827246E2,-4.2241776E1],"split_indices":[1,1,1,1,0,0,0,0,0,0,0,0,0,0,0,0,0,0,0,0,0,0,0,0,1,1,0,0,0,1,0,1,1,0,1,0,0,0,0,0,1,0,1,1,0,1,1,0,0,0,0,0,0,0,0,0,0,0,0,0,0,0,0,0,0,0,0,0,0,0,0,0,0,0,0,0,0,0,0,0,0,0,0],"split_type":[0,0,0,0,0,0,0,0,0,0,0,0,0,0,0,0,0,0,0,0,0,0,0,0,0,0,0,0,0,0,0,0,0,0,0,0,0,0,0,0,0,0,0,0,0,0,0,0,0,0,0,0,0,0,0,0,0,0,0,0,0,0,0,0,0,0,0,0,0,0,0,0,0,0,0,0,0,0,0,0,0,0,0],"sum_hessian":[1.89E3,1.018E3,8.72E2,1.011E3,7E0,3E1,8.42E2,1.55E2,8.56E2,6E0,1E0,2E0,2.8E1,4.97E2,3.45E2,2.5E1,1.3E2,1.44E2,7.12E2,1E0,5E0,5E0,2.3E1,3.74E2,1.23E2,2.92E2,5.3E1,2.2E1,3E0,8E0,1.22E2,1.12E2,3.2E1,2.2E1,6.9E2,1E0,4E0,2.1E1,2E0,3.39E2,3.5E1,7E0,1.16E2,2.57E2,3.5E1,3.5E1,1.8E1,2.1E1,1E0,1E0,7E0,6E0,1.16E2,2.3E1,8.9E1,2.8E1,4E0,1.4E1,8E0,6.8E2,1E1,3E0,1E0,1.5E1,6E0,1E0,1E0,2.57E2,8.2E1,1.6E1,1.9E1,6E0,1E0,6.3E1,5.3E1,1.54E2,1.03E2,3E1,5E0,8E0,2.7E1,5E0,1.3E1],"tree_param":{"num_deleted":"0","num_feature":"2","num_nodes":"83","size_leaf_vector":"1"}},{"base_weights":[1.782304E1,-3.3601673E1,2.0482414E2,3.5599796E1,-7.310463E2,1.4529802E3,1.05485085E2,1.8252607E1,2.9454775E3,-2.804072E3,-5.7717114E2,1.9272002E3,-1.3035602E3,-1.1352269E3,1.8883229E2,-5.4854874E1,2.4671356E2,1.4887738E3,4.0299878E3,1.582993E2,-9.8594916E2,-9.6395544E2,9.475361E2,1.5411063E3,1.7369321E3,-7.1064E2,1.9619987E2,3.841226E3,-2.0290643E3,1.468775E3,1.0012715E2,1.2237519E1,-4.260919E2,1.7472799E3,8.872616E1,6.15431E2,1.2895587E2,1.4237595E3,2.8235364E2,8.6999426E2,-1.1097814E3,2.0020233E3,-2.2006467E3,3.2350789E3,8.359004E2,3.51495E2,-2.6320505E2,1.7307917E3,1.275431E3,-8.3390094E2,-3.2603538E3,3.2324698E2,3.2147913E3,-1.5890198E3,2.2432668E2,-3.0510373E0,7.2333795E2,-7.0284485E2,-6.1670795E1,1.3085902E3,4.2496323E2,-7.1037926E1,1.3743076E2,-2.9281904E1,5.5859894E2,-5.7713528E1,-3.6871414E2,6.5691125E2,6.2579056E1,-7.1427856E2,-1.6784349E2,1.6296237E2,1.535454E3,-5.247453E2,5.6522174E2,-3.6927805E2,9.43222E2,-6.954988E2,3.1107465E2,-1.0474578E3,-1.769707E2,-1.1884077E2,5.52372E2,5.860081E2,1.52596E3,1.3072409E2,-8.0938354E2,7.3196277E2,1.4351151E1],"categories":[],"categories_nodes":[],"categories_segments":[],"categories_sizes":[],"default_left":[0,0,0,0,0,0,0,0,0,0,0,0,0,0,0,0,0,0,0,0,0,0,0,0,0,0,0,0,0,0,0,0,0,0,0,0,0,0,0,0,0,0,0,0,0,0,0,0,0,0,0,0,0,0,0,0,0,0,0,0,0,0,0,0,0,0,0,0,0,0,0,0,0,0,0,0,0,0,0,0,0,0,0,0,0,0,0,0,0],"id":10,"left_children":[1,3,5,7,9,11,13,15,17,19,21,23,25,27,29,31,33,35,37,-1,-1,39,41,43,-1,-1,45,47,49,51,53,55,57,59,61,-1,-1,-1,-1,63,65,67,69,71,73,-1,-1,-1,75,77,79,81,83,85,87,-1,-1,-1,-1,-1,-1,-1,-1,-1,-1,-1,-1,-1,-1,-1,-1,-1,-1,-1,-1,-1,-1,-1,-1,-1,-1,-1,-1,-1,-1,-1,-1,-1,-1],"loss_changes":[1.8191644E7,7.16501E7,5.0434916E7,6.814228E7,4.1125856E7,4.172842E7,3.9406708E7,2.2461298E7,6.638744E6,1.6199984E7,7.521971E7,2.985156E7,8.45278E6,1.1454946E8,4.027229E7,2.5385628E7,7.712998E7,2.097262E6,4.378112E6,0E0,0E0,2.7976696E7,9.071843E7,2.716078E7,0E0,0E0,4.1695302E6,1.242988E7,2.8184616E7,4.496337E7,7.042674E7,4.6467504E7,6.545662E7,2.0628976E7,3.5699252E7,0E0,0E0,0E0,0E0,7.860638E6,1.0048552E7,6.275064E6,7.39032E5,3.2703216E7,5.4777516E7,0E0,0E0,0E0,1.7920584E7,3.5729016E7,4.11368E6,1.710965E7,1.1313824E7,5.281787E7,1.2188187E8,0E0,0E0,0E0,0E0,0E0,0E0,0E0,0E0,0E0,0E0,0E0,0E0,0E0,0E0,0E0,0E0,0E0,0E0,0E0,0E0,0E0,0E0,0E0,0E0,0E0,0E0,0E0,0E0,0E0,0E0,0E0,0E0,0E0,0E0],"parents":[2147483647,0,0,1,1,2,2,3,3,4,4,5,5,6,6,7,7,8,8,9,9,10,10,11,11,12,12,13,13,14,14,15,15,16,16,17,17,18,18,21,21,22,22,23,23,26,26,27,27,28,28,29,29,30,30,31,31,32,32,33,33,34,34,39,39,40,40,41,41,42,42,43,43,44,44,48,48,49,49,50,50,51,51,52,52,53,53,54,54],"right_children":[2,4,6,8,10,12,14,16,18,20,22,24,26,28,30,32,34,36,38,-1,-1,40,42,44,-1,-1,46,48,50,52,54,56,58,60,62,-1,-1,-1,-1,64,66,68,70,72,74,-1,-1,-1,76,78,80,82,84,86,88,-1,-1,-1,-1,-1,-1,-1,-1,-1,-1,-1,-1,-1,-1,-1,-1,-1,-1,-1,-1,-1,-1,-1,-1,-1,-1,-1,-1,-1,-1,-1,-1,-1,-1],"split_conditions":[-8.204824E1,-8.4129395E1,-8.1435844E1,-8.420258E1,-8.399825E1,3.937232E1,-8.091703E1,-8.969377E1,3.4471977E1,3.519616E1,3.8194675E1,3.9101242E1,3.97811E1,2.6926016E1,-8.0210724E1,-9.236711E1,-8.9299774E1,3.2136753E1,4.0347282E1,1.582993E2,-9.8594916E2,3.0579336E1,4.383961E1,3.2022274E1,1.7369321E3,-7.1064E2,4.0347282E1,2.0194742E1,3.705588E1,-8.054497E1,-7.927355E1,-9.245E1,-9.195018E1,3.1321554E1,3.776707E1,6.15431E2,1.2895587E2,1.4237595E3,2.8235364E2,-8.288137E1,-8.382151E1,4.052372E1,4.5367283E1,-8.1727135E1,3.4078598E1,3.51495E2,-2.6320505E2,1.7307917E3,-8.109178E1,3.4471977E1,4.0347282E1,3.966438E1,3.8995888E1,3.728632E1,-7.8465256E1,-3.0510373E0,7.2333795E2,-7.0284485E2,-6.1670795E1,1.3085902E3,4.2496323E2,-7.1037926E1,1.3743076E2,-2.9281904E1,5.5859894E2,-5.7713528E1,-3.6871414E2,6.5691125E2,6.2579056E1,-7.1427856E2,-1.6784349E2,1.6296237E2,1.535454E3,-5.247453E2,5.6522174E2,-3.6927805E2,9.43222E2,-6.954988E2,3.1107465E2,-1.0474578E3,-1.769707E2,-1.1884077E2,5.52372E2,5.860081E2,1.52596E3,1.3072409E2,-8.0938354E2,7.3196277E2,1.4351151E1],"split_indices":[1,1,1,1,1,0,1,1,0,0,0,0,0,0,1,1,1,0,0,0,0,0,0,0,0,0,0,0,0,1,1,1,1,0,0,0,0,0,0,1,1,0,0,1,0,0,0,0,1,0,0,0,0,0,1,0,0,0,0,0,0,0,0,0,0,0,0,0,0,0,0,0,0,0,0,0,0,0,0,0,0,0,0,0,0,0,0,0,0],"split_type":[0,0,0,0,0,0,0,0,0,0,0,0,0,0,0,0,0,0,0,0,0,0,0,0,0,0,0,0,0,0,0,0,0,0,0,0,0,0,0,0,0,0,0,0,0,0,0,0,0,0,0,0,0,0,0,0,0,0,0,0,0,0,0,0,0,0,0,0,0,0,0,0,0,0,0,0,0,0,0,0,0,0,0,0,0,0,0,0,0],"sum_hessian":[1.89E3,1.483E3,4.07E2,1.35E3,1.33E2,2.9E1,3.78E2,1.343E3,7E0,8E0,1.25E2,2.5E1,4E0,2.3E1,3.55E2,1.018E3,3.25E2,4E0,3E0,1E0,7E0,1E2,2.5E1,2.4E1,1E0,2E0,2E0,3E0,2E1,2.2E1,3.33E2,8.63E2,1.55E2,3E1,2.95E2,2E0,2E0,2E0,1E0,7E0,9.3E1,1.9E1,6E0,6E0,1.8E1,1E0,1E0,1E0,2E0,1.1E1,9E0,1.4E1,8E0,2.2E1,3.11E2,8.56E2,7E0,1.5E1,1.4E2,2E0,2.8E1,1.57E2,1.38E2,4E0,3E0,1.1E1,8.2E1,1.7E1,2E0,5E0,1E0,3E0,3E0,5E0,1.3E1,1E0,1E0,6E0,5E0,8E0,1E0,1E1,4E0,6E0,2E0,8E0,1.4E1,2.2E1,2.89E2],"tree_param":{"num_deleted":"0","num_feature":"2","num_nodes":"89","size_leaf_vector":"1"}},{"base_weights":[1.7490112E1,-2.0318203E0,4.3746823E2,1.8739307E1,-4.890031E2,-1.1196715E3,5.089632E2,-1.350301E-1,8.6163104E2,-1.216562E3,-3.9483185E2,-5.814173E2,2.0032295E2,1.00542035E3,2.1275783E2,4.6190463E2,-2.7500137E1,3.297944E3,-8.188308E0,-9.6327644E1,-4.3846103E2,4.927786E2,-4.5058975E2,-7.003841E2,1.2010979E3,2.280535E3,-5.574047E1,-8.9642645E2,7.694438E2,-5.767598E2,-3.5548186E0,-1.2413994E3,4.587955E3,-8.521184E2,1.4502535E3,-4.2408517E2,-3.260081E2,3.2623489E3,6.357394E2,-1.5676627E3,4.8268584E3,-4.277268E2,9.5004895E2,1.0710404E2,-4.658693E2,1.4711731E3,1.9561868E2,-4.1387634E2,-3.7723648E1,5.512453E1,-2.0072727E1,-3.1171436E1,-5.274583E2,1.8961595E3,3.825736E2,-1.1577274E2,-9.6297955E2,1.8984482E3,-1.0105645E2,-1.3694289E2,2.4734158E2,4.993306E2,1.6877875E3,-4.5560208E2,4.836553E2,3.3581904E3,1.309768E2,-5.938331E2,-3.0937765E1,1.708917E3,2.3946426E1],"categories":[],"categories_nodes":[],"categories_segments":[],"categories_sizes":[],"default_left":[0,0,0,0,0,0,0,0,0,0,0,0,0,0,0,0,0,0,0,0,0,0,0,0,0,0,0,0,0,0,0,0,0,0,0,0,0,0,0,0,0,0,0,0,0,0,0,0,0,0,0,0,0,0,0,0,0,0,0,0,0,0,0,0,0,0,0,0,0,0,0],"id":11,"left_children":[1,3,5,7,9,11,13,15,17,19,21,-1,-1,23,25,27,29,31,33,-1,-1,-1,35,-1,37,39,41,43,45,47,49,51,53,55,57,59,-1,61,63,-1,65,67,69,-1,-1,-1,-1,-1,-1,-1,-1,-1,-1,-1,-1,-1,-1,-1,-1,-1,-1,-1,-1,-1,-1,-1,-1,-1,-1,-1,-1],"loss_changes":[1.550479E7,1.829698E7,9.921389E6,2.7602272E7,4.589784E6,7.145305E6,1.1697406E7,2.1481816E7,8.055478E7,1.285651E6,8.351516E6,0E0,0E0,2.2411184E7,2.8997238E7,4.0375052E7,2.1094076E7,6.4253504E7,3.6929656E7,0E0,0E0,0E0,6.51888E5,0E0,3.1721024E7,1.3990037E8,1.799094E7,1.5365652E7,3.4656516E7,2.4086346E7,1.8262908E7,1.5808695E6,3.785597E7,1.9646714E7,9.802251E7,3.005089E6,0E0,1.3297016E7,5.293635E7,0E0,1.3487946E8,1.7424974E7,5.3240456E7,0E0,0E0,0E0,0E0,0E0,0E0,0E0,0E0,0E0,0E0,0E0,0E0,0E0,0E0,0E0,0E0,0E0,0E0,0E0,0E0,0E0,0E0,0E0,0E0,0E0,0E0,0E0,0E0],"parents":[2147483647,0,0,1,1,2,2,3,3,4,4,5,5,6,6,7,7,8,8,9,9,10,10,13,13,14,14,15,15,16,16,17,17,18,18,22,22,24,24,25,25,26,26,27,27,28,28,29,29,30,30,31,31,32,32,33,33,34,34,35,35,37,37,38,38,40,40,41,41,42,42],"right_children":[2,4,6,8,10,12,14,16,18,20,22,-1,-1,24,26,28,30,32,34,-1,-1,-1,36,-1,38,40,42,44,46,48,50,52,54,56,58,60,-1,62,64,-1,66,68,70,-1,-1,-1,-1,-1,-1,-1,-1,-1,-1,-1,-1,-1,-1,-1,-1,-1,-1,-1,-1,-1,-1,-1,-1,-1,-1,-1,-1],"split_conditions":[-6.566686E1,-6.985075E1,-1.3759E1,-7.529957E1,-6.838402E1,7.12761E1,4.5833E0,3.0878828E1,4.1742283E1,7.1315E0,1.6742498E1,-5.814173E2,2.0032295E2,8.554E-1,8.554E-1,-9.976229E1,3.1723215E1,7.1315E0,4.407658E1,-9.6327644E1,-4.3846103E2,4.927786E2,4.464253E1,-7.003841E2,1.6742498E1,1.84867E1,3.9933224E1,-1.515389E2,2.0194742E1,-9.378353E1,3.634118E1,-7.309049E1,-7.309049E1,4.3969746E1,4.4465485E1,2.0194742E1,-3.260081E2,2.3158E0,1.8328646E1,-1.5676627E3,7.12761E1,7.12761E1,4.0261868E1,1.0710404E2,-4.658693E2,1.4711731E3,1.9561868E2,-4.1387634E2,-3.7723648E1,5.512453E1,-2.0072727E1,-3.1171436E1,-5.274583E2,1.8961595E3,3.825736E2,-1.1577274E2,-9.6297955E2,1.8984482E3,-1.0105645E2,-1.3694289E2,2.4734158E2,4.993306E2,1.6877875E3,-4.5560208E2,4.836553E2,3.3581904E3,1.309768E2,-5.938331E2,-3.0937765E1,1.708917E3,2.3946426E1],"split_indices":[1,1,0,1,1,1,1,0,0,0,0,0,0,0,0,1,0,0,0,0,0,0,0,0,0,1,0,1,0,1,0,1,1,0,0,0,0,1,0,0,1,1,0,0,0,0,0,0,0,0,0,0,0,0,0,0,0,0,0,0,0,0,0,0,0,0,0,0,0,0,0],"split_type":[0,0,0,0,0,0,0,0,0,0,0,0,0,0,0,0,0,0,0,0,0,0,0,0,0,0,0,0,0,0,0,0,0,0,0,0,0,0,0,0,0,0,0,0,0,0,0,0,0,0,0,0,0,0,0,0,0,0,0,0,0,0,0,0,0,0,0,0,0,0,0],"sum_hessian":[1.89E3,1.807E3,8.3E1,1.734E3,7.3E1,3E0,8E1,1.697E3,3.7E1,7E0,6.6E1,2E0,1E0,2.9E1,5.1E1,9.4E1,1.603E3,9E0,2.8E1,2E0,5E0,1E0,6.5E1,1E0,2.8E1,5E0,4.6E1,1.7E1,7.7E1,6.6E1,1.537E3,2E0,7E0,1.8E1,1E1,6.4E1,1E0,5E0,2.3E1,1E0,4E0,3.4E1,1.2E1,6E0,1.1E1,1E0,7.6E1,2.3E1,4.3E1,3.88E2,1.149E3,1E0,1E0,4E0,3E0,1.6E1,2E0,2E0,8E0,6.3E1,1E0,4E0,1E0,7E0,1.6E1,1E0,3E0,5E0,2.9E1,1E0,1.1E1],"tree_param":{"num_deleted":"0","num_feature":"2","num_nodes":"71","size_leaf_vector":"1"}},{"base_weights":[1.6069534E1,-3.3634716E1,1.4511884E2,9.65407E0,-1.1062352E3,3.1707483E3,6.756545E0,-2.5930332E1,1.5335308E3,-8.7618616E2,-1.3944974E3,2.7616263E2,7.6427524E3,-5.3986017E2,1.2528365E2,3.406119E1,-6.1403265E2,3.840954E3,7.966352E2,-1.1815626E3,2.158896E3,3.1425615E3,-7.023172E2,1.2958595E4,7.9835974E2,-1.156936E3,1.2053042E3,4.206019E2,-2.1330363E2,-2.9234028E1,4.9484225E2,-1.0130669E3,1.2963682E3,3.1490952E2,2.5312131E3,-9.817018E2,2.1369976E3,-7.1607776E2,-3.2225408E3,8.6345E1,1.1994613E3,-6.0021094E2,9.295191E2,5.093594E3,4.9512197E3,1.2764556E3,-1.1294761E3,7.727219E1,-1.8038466E3,2.7414124E3,5.409675E2,2.2687839E2,2.9006123E3,3.798338E2,-3.7969577E2,-4.859886E-1,-3.703733E2,2.8319702E2,-2.3794212E2,3.697812E2,-4.382454E2,1.0215883E3,1.27349365E2,-1.0638022E2,4.489426E2,-8.3186523E2,1.3138718E2,3.41438E2,8.2316547E2,-5.1415216E2,8.066432E1,1.5381256E2,-1.552685E3,1.0756736E3,-3.884716E2,2.2107275E3,8.1389946E1,-6.455388E2,-2.1431252E1,-3.082503E2,6.098183E2,-3.071567E2,-9.3145197E2,2.724102E2,9.879471E2,-5.1084763E2,5.414298E2,1.02132256E2,-3.4501526E2,2.7403257E3,4.0728302E2,-4.75572E0,5.629229E2,-2.573644E2,-3.4509594E1],"categories":[],"categories_nodes":[],"categories_segments":[],"categories_sizes":[],"default_left":[0,0,0,0,0,0,0,0,0,0,0,0,0,0,0,0,0,0,0,0,0,0,0,0,0,0,0,0,0,0,0,0,0,0,0,0,0,0,0,0,0,0,0,0,0,0,0,0,0,0,0,0,0,0,0,0,0,0,0,0,0,0,0,0,0,0,0,0,0,0,0,0,0,0,0,0,0,0,0,0,0,0,0,0,0,0,0,0,0,0,0,0,0,0,0],"id":12,"left_children":[1,3,5,7,9,11,13,15,17,19,-1,21,23,25,27,29,31,33,35,37,-1,39,41,43,45,47,49,51,53,55,57,59,61,63,-1,65,67,69,71,-1,-1,-1,73,75,-1,-1,77,79,81,83,85,87,89,91,93,-1,-1,-1,-1,-1,-1,-1,-1,-1,-1,-1,-1,-1,-1,-1,-1,-1,-1,-1,-1,-1,-1,-1,-1,-1,-1,-1,-1,-1,-1,-1,-1,-1,-1,-1,-1,-1,-1,-1,-1],"loss_changes":[1.213432E7,6.3436212E7,2.2017955E8,7.129305E7,3.9114492E7,2.9561517E8,3.2721242E7,4.53572E7,4.7950064E7,1.3422571E8,0E0,4.4277772E7,3.1710774E8,9.831536E7,4.158598E7,3.40503E7,9.202883E7,1.10793336E8,5.930467E7,4.519464E7,0E0,8.619816E6,2.7284726E7,5.5360576E7,3.8123496E7,5.363367E7,2.3008816E7,1.0599878E8,1.9290742E7,3.4181116E7,8.231645E7,1.0134525E8,3.7167372E7,4.4860025E6,0E0,2.9185954E7,5.363944E6,4.173654E7,6.831061E7,0E0,0E0,0E0,4.0092196E7,3.092012E7,0E0,0E0,4.172896E6,5.393666E7,4.1470656E7,4.090596E6,5.411584E7,3.275958E7,1.4149949E8,2.5493246E7,1.9138198E7,0E0,0E0,0E0,0E0,0E0,0E0,0E0,0E0,0E0,0E0,0E0,0E0,0E0,0E0,0E0,0E0,0E0,0E0,0E0,0E0,0E0,0E0,0E0,0E0,0E0,0E0,0E0,0E0,0E0,0E0,0E0,0E0,0E0,0E0,0E0,0E0,0E0,0E0,0E0,0E0],"parents":[2147483647,0,0,1,1,2,2,3,3,4,4,5,5,6,6,7,7,8,8,9,9,11,11,12,12,13,13,14,14,15,15,16,16,17,17,18,18,19,19,21,21,22,22,23,23,24,24,25,25,26,26,27,27,28,28,29,29,30,30,31,31,32,32,33,33,35,35,36,36,37,37,38,38,42,42,43,43,46,46,47,47,48,48,49,49,50,50,51,51,52,52,53,53,54,54],"right_children":[2,4,6,8,10,12,14,16,18,20,-1,22,24,26,28,30,32,34,36,38,-1,40,42,44,46,48,50,52,54,56,58,60,62,64,-1,66,68,70,72,-1,-1,-1,74,76,-1,-1,78,80,82,84,86,88,90,92,94,-1,-1,-1,-1,-1,-1,-1,-1,-1,-1,-1,-1,-1,-1,-1,-1,-1,-1,-1,-1,-1,-1,-1,-1,-1,-1,-1,-1,-1,-1,-1,-1,-1,-1,-1,-1,-1,-1,-1,-1],"split_conditions":[4.15642E1,4.102959E1,4.1686253E1,4.0747177E1,-7.309049E1,-9.440476E1,4.2855186E1,3.97811E1,-9.839999E1,-7.429926E1,-1.3944974E3,-1.0571821E2,-8.836363E1,-8.980246E1,4.562975E1,3.871241E1,-8.492726E1,-9.976229E1,-9.047535E1,-8.399825E1,2.158896E3,-1.2233284E2,-9.839999E1,-9.299527E1,4.158072E1,4.2041653E1,-8.520612E1,4.5427128E1,-1.179052E2,3.8564438E1,-8.19604E1,-1.0239261E2,-8.337736E1,-1.0152327E2,2.5312131E3,4.087028E1,-8.676421E1,4.122781E1,4.13534E1,8.6345E1,1.1994613E3,-6.0021094E2,4.165944E1,-9.399514E1,4.9512197E3,1.2764556E3,-8.538713E1,4.1916378E1,-9.496797E1,-8.95539E1,-7.6665596E1,4.5211792E1,-1.1058908E2,-1.2079136E2,4.6432224E1,-4.859886E-1,-3.703733E2,2.8319702E2,-2.3794212E2,3.697812E2,-4.382454E2,1.0215883E3,1.27349365E2,-1.0638022E2,4.489426E2,-8.3186523E2,1.3138718E2,3.41438E2,8.2316547E2,-5.1415216E2,8.066432E1,1.5381256E2,-1.552685E3,1.0756736E3,-3.884716E2,2.2107275E3,8.1389946E1,-6.455388E2,-2.1431252E1,-3.082503E2,6.098183E2,-3.071567E2,-9.3145197E2,2.724102E2,9.879471E2,-5.1084763E2,5.414298E2,1.02132256E2,-3.4501526E2,2.7403257E3,4.0728302E2,-4.75572E0,5.629229E2,-2.573644E2,-3.4509594E1],"split_indices":[0,0,0,0,1,1,0,0,1,1,0,1,1,1,0,0,1,1,1,1,0,1,1,1,0,0,1,0,1,0,1,1,1,1,0,0,1,0,0,0,0,0,0,1,0,0,1,0,1,1,1,0,1,1,0,0,0,0,0,0,0,0,0,0,0,0,0,0,0,0,0,0,0,0,0,0,0,0,0,0,0,0,0,0,0,0,0,0,0,0,0,0,0,0,0],"split_type":[0,0,0,0,0,0,0,0,0,0,0,0,0,0,0,0,0,0,0,0,0,0,0,0,0,0,0,0,0,0,0,0,0,0,0,0,0,0,0,0,0,0,0,0,0,0,0,0,0,0,0,0,0,0,0,0,0,0,0,0,0,0,0,0,0,0,0,0,0,0,0,0,0,0,0,0,0,0,0,0,0,0,0,0,0,0,0,0,0,0,0,0,0,0,0],"sum_hessian":[1.89E3,1.365E3,5.25E2,1.313E3,5.2E1,2.2E1,5.03E2,1.284E3,2.9E1,5E1,2E0,1.4E1,8E0,8.9E1,4.14E2,1.166E3,1.18E2,6E0,2.3E1,4.9E1,1E0,3E0,1.1E1,4E0,4E0,6.6E1,2.3E1,2.21E2,1.93E2,1.026E3,1.4E2,9.8E1,2E1,4E0,2E0,1E1,1.3E1,4.1E1,8E0,1E0,2E0,6E0,5E0,2E0,2E0,1E0,3E0,2.3E1,4.3E1,6E0,1.7E1,2.06E2,1.5E1,4.2E1,1.51E2,1.004E3,2.2E1,1.04E2,3.6E1,1.6E1,8.2E1,5E0,1.5E1,3E0,1E0,4E0,6E0,6E0,7E0,2E1,2.1E1,3E0,5E0,2E0,3E0,1E0,1E0,1E0,2E0,1.5E1,8E0,2.8E1,1.5E1,2E0,4E0,6E0,1.1E1,1.91E2,1.5E1,2E0,1.3E1,3.4E1,8E0,5.3E1,9.8E1],"tree_param":{"num_deleted":"0","num_feature":"2","num_nodes":"95","size_leaf_vector":"1"}},{"base_weights":[1.959099E1,-2.0387688E1,1.6495561E2,3.5557648E1,-5.8428143E2,4.6145963E2,-6.1967506E1,7.6933823E0,1.2622578E3,-4.6926978E2,-2.1295244E3,2.4850227E3,-1.4750058E2,-1.5211996E3,8.287136E1,2.9939613E1,-7.4478296E2,9.0978973E2,2.1178213E3,-7.1886884E2,1.1733872E3,-7.9537146E2,-1.1819061E3,1.1102845E3,8.017032E3,-1.9944265E3,1.3630808E1,-5.5920166E2,-2.3449065E3,-4.6794336E2,4.852328E2,4.6025968E0,2.0391941E3,-9.2736304E2,9.001199E1,1.4520255E3,-9.5024414E1,1.147308E3,2.8015073E3,-2.3143381E3,-6.368291E2,2.385661E3,4.6946814E2,-4.8262015E2,-3.6110986E2,7.0409436E2,9.976107E2,2.0622246E3,9.658264E3,-5.2697375E2,-1.0949926E3,-1.0623116E2,9.1568225E2,-1.1029535E3,3.775363E2,-2.1277197E2,-8.385219E2,3.3950635E2,-1.1206932E3,3.6483774E3,2.0350752E2,-1.3373525E1,6.2236717E1,-2.163959E2,7.455229E2,-5.392131E2,2.3167314E2,7.5530414E2,3.2832327E2,-2.2617401E2,7.764131E2,4.814171E2,9.223692E1,1.0409119E3,1.19536674E2,1.263586E2,-9.310561E2,-2.2837416E2,1.5206859E2,1.0087498E3,8.639678E1,4.126389E2,-4.663863E1,-2.8019825E1,-1.3447961E2,7.2458075E2,2.3487103E1,1.02159644E3,-9.3595314E1,3.135197E3,8.5444543E2,-5.679482E2,1.150522E3,-4.266753E0,-7.829734E2,1.8696234E3,-1.144846E2,-5.7538624E1,-4.5796997E2,-1.4744327E2,5.1695877E1,-3.568055E1,9.1007135E2,-2.1522734E2,-7.9860785E2,1.7561976E3,8.158943E1,-3.8966086E2,1.4406035E2],"categories":[],"categories_nodes":[],"categories_segments":[],"categories_sizes":[],"default_left":[0,0,0,0,0,0,0,0,0,0,0,0,0,0,0,0,0,0,0,0,0,0,0,0,0,0,0,0,0,0,0,0,0,0,0,0,0,0,0,0,0,0,0,0,0,0,0,0,0,0,0,0,0,0,0,0,0,0,0,0,0,0,0,0,0,0,0,0,0,0,0,0,0,0,0,0,0,0,0,0,0,0,0,0,0,0,0,0,0,0,0,0,0,0,0,0,0,0,0,0,0,0,0,0,0,0,0,0,0],"id":13,"left_children":[1,3,5,7,9,11,13,15,17,19,21,23,25,27,29,31,33,35,37,39,41,-1,43,45,47,49,51,53,55,57,59,61,63,-1,65,67,69,71,73,75,77,79,81,-1,83,85,-1,87,89,91,-1,93,95,97,-1,99,-1,101,103,105,107,-1,-1,-1,-1,-1,-1,-1,-1,-1,-1,-1,-1,-1,-1,-1,-1,-1,-1,-1,-1,-1,-1,-1,-1,-1,-1,-1,-1,-1,-1,-1,-1,-1,-1,-1,-1,-1,-1,-1,-1,-1,-1,-1,-1,-1,-1,-1,-1],"loss_changes":[1.0992882E7,4.6836856E7,2.7480308E7,4.6168956E7,2.2815288E7,2.184782E8,4.916008E7,2.2152264E7,7.119992E6,5.250423E7,1.315956E6,3.0290643E8,4.0798076E7,1.532922E7,4.72119E7,6.540806E7,7.471209E7,1.266944E7,2.09402E6,1.2924272E7,1.338683E7,0E0,1.170763E6,2.8249972E7,5.826829E7,2.4800396E7,1.3828725E7,1.2259906E7,9.963256E6,4.781613E7,1.08867464E8,1.267943E7,2.148634E7,0E0,3.8729476E7,2.961028E6,1.7861754E7,1.427424E6,5.040338E6,1.210136E7,1.5469676E7,1.1326152E7,7.008035E6,0E0,2.8129625E4,3.193671E7,0E0,1.0628783E7,2.612608E6,4.8976004E7,0E0,2.5993586E7,1.05832456E8,3.181019E6,0E0,4.066727E5,0E0,5.0998708E7,2.9168768E7,7.287856E7,4.8013304E7,0E0,0E0,0E0,0E0,0E0,0E0,0E0,0E0,0E0,0E0,0E0,0E0,0E0,0E0,0E0,0E0,0E0,0E0,0E0,0E0,0E0,0E0,0E0,0E0,0E0,0E0,0E0,0E0,0E0,0E0,0E0,0E0,0E0,0E0,0E0,0E0,0E0,0E0,0E0,0E0,0E0,0E0,0E0,0E0,0E0,0E0,0E0,0E0],"parents":[2147483647,0,0,1,1,2,2,3,3,4,4,5,5,6,6,7,7,8,8,9,9,10,10,11,11,12,12,13,13,14,14,15,15,16,16,17,17,18,18,19,19,20,20,22,22,23,23,24,24,25,25,26,26,27,27,28,28,29,29,30,30,31,31,32,32,34,34,35,35,36,36,37,37,38,38,39,39,40,40,41,41,42,42,44,44,45,45,47,47,48,48,49,49,51,51,52,52,53,53,55,55,57,57,58,58,59,59,60,60],"right_children":[2,4,6,8,10,12,14,16,18,20,22,24,26,28,30,32,34,36,38,40,42,-1,44,46,48,50,52,54,56,58,60,62,64,-1,66,68,70,72,74,76,78,80,82,-1,84,86,-1,88,90,92,-1,94,96,98,-1,100,-1,102,104,106,108,-1,-1,-1,-1,-1,-1,-1,-1,-1,-1,-1,-1,-1,-1,-1,-1,-1,-1,-1,-1,-1,-1,-1,-1,-1,-1,-1,-1,-1,-1,-1,-1,-1,-1,-1,-1,-1,-1,-1,-1,-1,-1,-1,-1,-1,-1,-1,-1],"split_conditions":[-8.204824E1,-8.4129395E1,3.634118E1,-8.45843E1,4.383961E1,-7.7859344E1,3.680767E1,-8.512887E1,-8.420258E1,3.871241E1,-8.382151E1,-7.927355E1,-7.634099E1,-7.8203766E1,-7.7859344E1,-8.530834E1,3.2136753E1,-8.4355995E1,3.4471977E1,-8.399825E1,-8.3496445E1,-7.9537146E2,4.4715717E1,3.5350693E1,3.4649677E1,-7.6665596E1,2.9622099E1,-7.927355E1,3.6389534E1,-8.0210724E1,-7.7393684E1,4.440556E1,3.1554565E1,-9.2736304E2,-8.501139E1,3.1038286E1,3.871241E1,3.2136753E1,4.0347282E1,3.519616E1,3.795545E1,4.043239E1,3.9101242E1,-4.8262015E2,4.506583E1,3.1038286E1,9.976107E2,3.453705E1,3.6178474E1,-7.684326E1,-1.0949926E3,2.6926016E1,3.23457E1,-8.117752E1,3.775363E2,-7.582904E1,-8.385219E2,-8.054497E1,3.948028E1,3.8753887E1,-7.684326E1,-1.3373525E1,6.2236717E1,-2.163959E2,7.455229E2,-5.392131E2,2.3167314E2,7.5530414E2,3.2832327E2,-2.2617401E2,7.764131E2,4.814171E2,9.223692E1,1.0409119E3,1.19536674E2,1.263586E2,-9.310561E2,-2.2837416E2,1.5206859E2,1.0087498E3,8.639678E1,4.126389E2,-4.663863E1,-2.8019825E1,-1.3447961E2,7.2458075E2,2.3487103E1,1.02159644E3,-9.3595314E1,3.135197E3,8.5444543E2,-5.679482E2,1.150522E3,-4.266753E0,-7.829734E2,1.8696234E3,-1.144846E2,-5.7538624E1,-4.5796997E2,-1.4744327E2,5.1695877E1,-3.568055E1,9.1007135E2,-2.1522734E2,-7.9860785E2,1.7561976E3,8.158943E1,-3.8966086E2,1.4406035E2],"split_indices":[1,1,0,1,0,1,0,1,1,0,1,1,1,1,1,1,0,1,0,1,1,0,0,0,0,1,0,1,0,1,1,0,0,0,1,0,0,0,0,0,0,0,0,0,0,0,0,0,0,1,0,0,0,1,0,1,0,1,0,0,1,0,0,0,0,0,0,0,0,0,0,0,0,0,0,0,0,0,0,0,0,0,0,0,0,0,0,0,0,0,0,0,0,0,0,0,0,0,0,0,0,0,0,0,0,0,0,0,0],"split_type":[0,0,0,0,0,0,0,0,0,0,0,0,0,0,0,0,0,0,0,0,0,0,0,0,0,0,0,0,0,0,0,0,0,0,0,0,0,0,0,0,0,0,0,0,0,0,0,0,0,0,0,0,0,0,0,0,0,0,0,0,0,0,0,0,0,0,0,0,0,0,0,0,0,0,0,0,0,0,0,0,0,0,0,0,0,0,0,0,0,0,0,0,0,0,0,0,0,0,0,0,0,0,0,0,0,0,0,0,0],"sum_hessian":[1.89E3,1.483E3,4.07E2,1.35E3,1.33E2,1.76E2,2.31E2,1.321E3,2.9E1,1.25E2,8E0,4E1,1.36E2,2E1,2.11E2,1.284E3,3.7E1,2.2E1,7E0,1.09E2,1.6E1,4E0,4E0,3.3E1,7E0,1E1,1.26E2,1E1,1E1,8.9E1,1.22E2,1.269E3,1.5E1,9E0,2.8E1,1.4E1,8E0,4E0,3E0,4E0,1.05E2,5E0,1.1E1,2E0,2E0,2.9E1,4E0,2E0,5E0,6E0,4E0,1.12E2,1.4E1,8E0,2E0,2E0,8E0,4E1,4.9E1,9E0,1.13E2,1.022E3,2.47E2,2E0,1.3E1,7E0,2.1E1,2E0,1.2E1,7E0,1E0,2E0,2E0,2E0,1E0,1E0,3E0,9.5E1,1E1,3E0,2E0,4E0,7E0,1E0,1E0,7E0,2.2E1,1E0,1E0,4E0,1E0,5E0,1E0,1.09E2,3E0,2E0,1.2E1,3E0,5E0,1E0,1E0,3.5E1,5E0,4E1,9E0,5E0,4E0,1.7E1,9.6E1],"tree_param":{"num_deleted":"0","num_feature":"2","num_nodes":"109","size_leaf_vector":"1"}},{"base_weights":[1.865813E1,4.5261177E1,-2.1428328E2,2.9042204E1,3.0857952E3,-1.130503E3,-1.3118942E2,4.711621E0,4.6666638E2,3.7408848E3,3.5411588E2,-7.5343524E2,-4.9001315E2,2.5732227E2,-2.4848146E2,-1.00076706E2,9.41094E1,-5.0400763E2,1.564897E3,1.8456761E3,-4.506836E2,-1.2011498E3,5.5855664E2,-7.1691055E1,1.6645902E3,5.9936745E1,-4.9359116E2,-8.224489E-1,-7.260583E2,1.3777864E3,6.365118E1,9.5701764E2,-9.642319E2,6.343433E3,6.943468E1,-4.1683505E2,1.2473894E3,-6.4337366E2,7.691499E1,-4.442913E2,-7.677739E2,-1.1451799E3,1.03764915E2,1.4891847E3,4.8411774E2,-2.6400815E2,2.2795657E3,6.8500244E2,-5.601737E2,2.6063974E1,-1.2677508E2,-4.7258182E2,-9.8242134E1,7.390909E2,-6.693023E1,2.698583E1,-3.9190967E2,1.2124647E3,9.275766E1,-2.1788939E2,-5.6405756E2,2.4225473E2,2.969838E3,2.1535469E3,-1.1311533E2,-2.3765118E2,-8.4035645E1,-8.295687E1,-3.5005524E2,-5.6784204E2,2.7679916E2,-7.9374504E1,2.7112527E2,9.5621716E2,-7.020553E2,-9.6924457E2,-2.7328314E1,1.0119322E3,-8.0628375E2,-2.2088995E2,4.3895363E1],"categories":[],"categories_nodes":[],"categories_segments":[],"categories_sizes":[],"default_left":[0,0,0,0,0,0,0,0,0,0,0,0,0,0,0,0,0,0,0,0,0,0,0,0,0,0,0,0,0,0,0,0,0,0,0,0,0,0,0,0,0,0,0,0,0,0,0,0,0,0,0,0,0,0,0,0,0,0,0,0,0,0,0,0,0,0,0,0,0,0,0,0,0,0,0,0,0,0,0,0,0],"id":14,"left_children":[1,3,5,7,9,11,13,15,17,-1,19,21,-1,23,25,27,29,31,33,35,37,39,-1,41,43,45,47,49,51,53,55,57,59,61,63,-1,-1,65,-1,-1,67,69,71,-1,73,75,77,-1,79,-1,-1,-1,-1,-1,-1,-1,-1,-1,-1,-1,-1,-1,-1,-1,-1,-1,-1,-1,-1,-1,-1,-1,-1,-1,-1,-1,-1,-1,-1,-1,-1],"loss_changes":[1.1728134E7,8.364614E7,1.4621343E7,1.7992332E7,2.2628662E8,1.803238E6,8.220849E6,1.5016703E7,9.566485E7,0E0,1.0435072E7,1.5116312E7,0E0,1.956575E7,1.0461873E7,4.585233E7,3.373251E7,3.3197952E7,2.996966E8,2.8218918E7,9.8241875E5,7.5625E4,0E0,6.7110805E6,2.8755276E7,4.5182148E7,1.5516002E7,2.363598E7,3.3671E7,3.5316104E7,3.0601946E7,2.272924E7,6.698124E6,1.888647E8,1.0745168E8,0E0,0E0,4.8354E4,0E0,0E0,8.5362025E5,9.476302E6,9.373952E6,0E0,6.090309E7,2.792079E7,5.252013E7,0E0,9.564534E6,0E0,0E0,0E0,0E0,0E0,0E0,0E0,0E0,0E0,0E0,0E0,0E0,0E0,0E0,0E0,0E0,0E0,0E0,0E0,0E0,0E0,0E0,0E0,0E0,0E0,0E0,0E0,0E0,0E0,0E0,0E0,0E0],"parents":[2147483647,0,0,1,1,2,2,3,3,4,4,5,5,6,6,7,7,8,8,10,10,11,11,13,13,14,14,15,15,16,16,17,17,18,18,19,19,20,20,21,21,23,23,24,24,25,25,26,26,27,27,28,28,29,29,30,30,31,31,32,32,33,33,34,34,37,37,40,40,41,41,42,42,44,44,45,45,46,46,48,48],"right_children":[2,4,6,8,10,12,14,16,18,-1,20,22,-1,24,26,28,30,32,34,36,38,40,-1,42,44,46,48,50,52,54,56,58,60,62,64,-1,-1,66,-1,-1,68,70,72,-1,74,76,78,-1,80,-1,-1,-1,-1,-1,-1,-1,-1,-1,-1,-1,-1,-1,-1,-1,-1,-1,-1,-1,-1,-1,-1,-1,-1,-1,-1,-1,-1,-1,-1,-1,-1],"split_conditions":[4.562975E1,4.5526257E1,4.587932E1,4.440556E1,-1.1058908E2,-9.3854454E1,-1.179052E2,-9.074828E1,-9.520917E1,3.7408848E3,-9.8242065E1,-9.678731E1,-4.9001315E2,-1.2079136E2,4.6978302E1,-9.2531555E1,-9.039656E1,4.464253E1,-9.236711E1,-1.0345345E2,-8.746161E1,-1.0917685E2,5.5855664E2,-1.5985619E2,4.6283985E1,4.68852E1,-1.174112E2,4.2041653E1,-9.1835106E1,3.6751976E1,4.3969746E1,-1.2318637E2,-9.711927E1,-9.420722E1,4.4465485E1,-4.1683505E2,1.2473894E3,-9.538289E1,7.691499E1,-4.442913E2,-9.921353E1,6.48255E1,6.03886E1,1.4891847E3,-1.19617134E2,-1.174112E2,-8.859319E1,6.8500244E2,-8.305093E1,2.6063974E1,-1.2677508E2,-4.7258182E2,-9.8242134E1,7.390909E2,-6.693023E1,2.698583E1,-3.9190967E2,1.2124647E3,9.275766E1,-2.1788939E2,-5.6405756E2,2.4225473E2,2.969838E3,2.1535469E3,-1.1311533E2,-2.3765118E2,-8.4035645E1,-8.295687E1,-3.5005524E2,-5.6784204E2,2.7679916E2,-7.9374504E1,2.7112527E2,9.5621716E2,-7.020553E2,-9.6924457E2,-2.7328314E1,1.0119322E3,-8.0628375E2,-2.2088995E2,4.3895363E1],"split_indices":[0,0,0,0,1,1,1,1,1,0,1,1,0,1,0,1,1,0,1,1,1,1,0,1,0,0,1,0,1,0,0,1,1,1,0,0,0,1,0,0,1,0,0,0,1,1,1,0,1,0,0,0,0,0,0,0,0,0,0,0,0,0,0,0,0,0,0,0,0,0,0,0,0,0,0,0,0,0,0,0,0],"split_type":[0,0,0,0,0,0,0,0,0,0,0,0,0,0,0,0,0,0,0,0,0,0,0,0,0,0,0,0,0,0,0,0,0,0,0,0,0,0,0,0,0,0,0,0,0,0,0,0,0,0,0,0,0,0,0,0,0,0,0,0,0,0,0,0,0,0,0,0,0,0,0,0,0,0,0,0,0,0,0,0,0],"sum_hessian":[1.89E3,1.697E3,1.93E2,1.689E3,8E0,1.5E1,1.78E2,1.601E3,8.8E1,1E0,7E0,1E1,5E0,4.1E1,1.37E2,7.37E2,8.64E2,4.7E1,4.1E1,2E0,5E0,9E0,1E0,3.4E1,7E0,6.1E1,7.6E1,6.37E2,1E2,1.9E1,8.45E2,1.1E1,3.6E1,9E0,3.2E1,1E0,1E0,4E0,1E0,4E0,5E0,4E0,3E1,1E0,6E0,5.4E1,7E0,1E0,7.5E1,5.28E2,1.09E2,3.1E1,6.9E1,1.1E1,8E0,8.3E2,1.5E1,1E0,1E1,3E1,6E0,4E0,5E0,1E0,3.1E1,2E0,2E0,3E0,2E0,3E0,1E0,2.1E1,9E0,3E0,3E0,2E0,5.2E1,6E0,1E0,6E1,1.5E1],"tree_param":{"num_deleted":"0","num_feature":"2","num_nodes":"81","size_leaf_vector":"1"}},{"base_weights":[1.8502579E1,-2.7745474E1,1.3857166E2,2.9631035E0,-7.885629E2,2.5956753E3,2.6166988E1,-2.5687449E1,1.230063E3,-5.9403455E2,-1.1498073E3,2.7298914E2,6.17841E3,9.974361E0,2.7270107E3,2.254693E1,-4.4016742E2,3.0883296E3,6.368159E2,-8.471691E2,1.8094044E3,2.5117263E3,-4.9600568E2,1.0534207E4,5.869318E2,-1.4255463E2,1.7707916E2,1.233393E3,-6.2380376E0,4.131214E0,1.3298046E3,1.6736538E3,-5.273694E2,2.7879648E2,2.0224326E3,-1.3460934E3,1.3725686E3,-5.2808777E2,-2.2420854E3,7.14895E1,9.570309E2,-4.4913422E2,7.5462164E2,4.321094E3,3.9707751E3,1.0593302E3,-1.0318855E3,-1.0203327E2,-5.583642E2,6.577867E2,-7.194661E1,-1.8019512E1,6.659578E1,-2.6957703E2,1.101157E3,-9.185982E2,-1.1505395E2,4.5260773E2,-1.2175518E2,-4.266625E1,-6.6403284E2,2.2734428E2,6.1388544E2,-3.727466E2,5.33533E1,8.540468E1,-1.065875E3,8.580007E2,-3.039208E2,1.8772146E3,6.727779E1,-5.5074976E2,-4.5587696E1,-1.9477565E2,4.9873447E0,1.413455E2,1.6246376E3,1.8602222E2,-1.2714201E2],"categories":[],"categories_nodes":[],"categories_segments":[],"categories_sizes":[],"default_left":[0,0,0,0,0,0,0,0,0,0,0,0,0,0,0,0,0,0,0,0,0,0,0,0,0,0,0,0,0,0,0,0,0,0,0,0,0,0,0,0,0,0,0,0,0,0,0,0,0,0,0,0,0,0,0,0,0,0,0,0,0,0,0,0,0,0,0,0,0,0,0,0,0,0,0,0,0,0,0],"id":15,"left_children":[1,3,5,7,9,11,13,15,17,19,-1,21,23,25,27,29,31,33,35,37,-1,39,41,43,45,47,49,-1,-1,51,53,-1,55,57,-1,59,61,63,65,-1,-1,-1,67,69,-1,-1,71,73,-1,75,77,-1,-1,-1,-1,-1,-1,-1,-1,-1,-1,-1,-1,-1,-1,-1,-1,-1,-1,-1,-1,-1,-1,-1,-1,-1,-1,-1,-1],"loss_changes":[1.0504494E7,3.1917042E7,1.4520797E8,4.622801E7,2.910822E7,1.8970946E8,2.201461E7,2.5699882E7,3.1105644E7,9.064236E7,0E0,2.706949E7,2.1301526E8,1.2820383E7,1.1496834E7,2.7727854E7,7.327466E7,6.996528E7,3.6861948E7,2.1070576E7,0E0,5.408766E6,1.6153914E7,2.6736448E7,2.7474048E7,1.8126048E7,2.877738E7,0E0,0E0,1.5914797E7,8.675501E7,0E0,4.732034E7,4.822527E6,0E0,6.994449E6,5.904356E6,2.1402348E7,3.0820944E7,0E0,0E0,0E0,2.5227356E7,2.2394676E7,0E0,0E0,2.550686E6,1.676319E7,0E0,7.026026E7,3.8978404E7,0E0,0E0,0E0,0E0,0E0,0E0,0E0,0E0,0E0,0E0,0E0,0E0,0E0,0E0,0E0,0E0,0E0,0E0,0E0,0E0,0E0,0E0,0E0,0E0,0E0,0E0,0E0,0E0],"parents":[2147483647,0,0,1,1,2,2,3,3,4,4,5,5,6,6,7,7,8,8,9,9,11,11,12,12,13,13,14,14,15,15,16,16,17,17,18,18,19,19,21,21,22,22,23,23,24,24,25,25,26,26,29,29,30,30,32,32,33,33,35,35,36,36,37,37,38,38,42,42,43,43,46,46,47,47,49,49,50,50],"right_children":[2,4,6,8,10,12,14,16,18,20,-1,22,24,26,28,30,32,34,36,38,-1,40,42,44,46,48,50,-1,-1,52,54,-1,56,58,-1,60,62,64,66,-1,-1,-1,68,70,-1,-1,72,74,-1,76,78,-1,-1,-1,-1,-1,-1,-1,-1,-1,-1,-1,-1,-1,-1,-1,-1,-1,-1,-1,-1,-1,-1,-1,-1,-1,-1,-1,-1],"split_conditions":[4.15642E1,4.102959E1,4.1686253E1,4.0747177E1,-7.309049E1,-9.440476E1,1.17323E2,3.960658E1,-9.839999E1,-7.429926E1,-1.1498073E3,-1.0571821E2,-8.836363E1,-9.662158E1,4.367741E1,3.948028E1,-1.2386991E2,-9.976229E1,-9.1835106E1,-8.399825E1,1.8094044E3,-1.2233284E2,-9.839999E1,-9.299527E1,4.158072E1,-9.678731E1,-9.236711E1,1.233393E3,-6.2380376E0,3.776707E1,-9.148183E1,1.6736538E3,-1.1573093E2,-1.1058908E2,2.0224326E3,-9.711927E1,-8.676421E1,4.122781E1,4.13534E1,7.14895E1,9.570309E2,-4.4913422E2,4.165944E1,-9.399514E1,3.9707751E3,1.0593302E3,-8.538713E1,4.311364E1,-5.583642E2,-9.245E1,4.3661465E1,-1.8019512E1,6.659578E1,-2.6957703E2,1.101157E3,-9.185982E2,-1.1505395E2,4.5260773E2,-1.2175518E2,-4.266625E1,-6.6403284E2,2.2734428E2,6.1388544E2,-3.727466E2,5.33533E1,8.540468E1,-1.065875E3,8.580007E2,-3.039208E2,1.8772146E3,6.727779E1,-5.5074976E2,-4.5587696E1,-1.9477565E2,4.9873447E0,1.413455E2,1.6246376E3,1.8602222E2,-1.2714201E2],"split_indices":[0,0,0,0,1,1,1,0,1,1,0,1,1,1,0,0,1,1,1,1,0,1,1,1,0,1,1,0,0,0,1,0,1,1,0,1,1,0,0,0,0,0,0,1,0,0,1,0,0,1,0,0,0,0,0,0,0,0,0,0,0,0,0,0,0,0,0,0,0,0,0,0,0,0,0,0,0,0,0],"split_type":[0,0,0,0,0,0,0,0,0,0,0,0,0,0,0,0,0,0,0,0,0,0,0,0,0,0,0,0,0,0,0,0,0,0,0,0,0,0,0,0,0,0,0,0,0,0,0,0,0,0,0,0,0,0,0,0,0,0,0,0,0,0,0,0,0,0,0,0,0,0,0,0,0,0,0,0,0,0,0],"sum_hessian":[1.89E3,1.365E3,5.25E2,1.313E3,5.2E1,2.2E1,5.03E2,1.284E3,2.9E1,5E1,2E0,1.4E1,8E0,5.01E2,2E0,1.151E3,1.33E2,6E0,2.3E1,4.9E1,1E0,3E0,1.1E1,4E0,4E0,2.62E2,2.39E2,1E0,1E0,1.136E3,1.5E1,1E0,1.32E2,4E0,2E0,6E0,1.7E1,4.1E1,8E0,1E0,2E0,6E0,5E0,2E0,2E0,1E0,3E0,2.57E2,5E0,8.1E1,1.58E2,8.78E2,2.58E2,8E0,7E0,6E0,1.26E2,1E0,3E0,3E0,3E0,1E1,7E0,2E1,2.1E1,3E0,5E0,2E0,3E0,1E0,1E0,1E0,2E0,4.5E1,2.12E2,7.9E1,2E0,5.3E1,1.05E2],"tree_param":{"num_deleted":"0","num_feature":"2","num_nodes":"79","size_leaf_vector":"1"}},{"base_weights":[1.9923399E1,4.7065988E0,3.4720975E2,-1.2196868E2,4.5416912E1,4.7810553E2,-4.0445993E2,-1.7635384E1,-4.6315982E2,5.0469226E2,-2.3204254E1,2.5474149E2,1.6936023E3,-3.3202948E2,9.4058093E2,2.1097336E2,-3.0903152E2,-5.4198364E2,1.6232263E3,2.6094855E2,1.698463E3,-4.3626733E2,6.2525642E1,3.926435E2,-7.764638E2,-6.6626984E2,2.3071423E3,5.237732E2,3.0277087E2,-8.237203E2,3.1085162E2,-1.3722776E3,-1.8860396E2,-3.8792715E2,-1.5431367E3,5.5061926E2,1.4800694E2,-8.2555963E2,4.7616257E2,3.5341362E3,-9.738894E2,-7.066519E1,-1.1882439E3,7.6358813E2,2.2761925E1,2.7609802E2,1.0903241E3,1.4034218E3,1.1296509E3,1.5840147E2,5.1691242E1,8.105811E1,-4.3348914E2,2.8594104E2,5.2746376E1,-5.145033E2,1.7109795E2,-9.700972E0,-2.624661E2,-1.9994124E2,1.5974889E2,-5.442242E2,-1.058916E1,-1.139112E2,-4.0754816E2,6.4296783E2,6.353802E1,5.123423E2,2.3823088E3,-9.2978125E2,-9.171135E1,-8.8039116E1,9.540429E2,-2.680254E2,-6.216489E2,-2.2599867E2,4.9003018E2,-5.854223E2,1.7109995E1,1.5675183E2,-3.4526764E2,-2.6604498E2,1.0103468E3,2.8563356E1,-5.302295E0],"categories":[],"categories_nodes":[],"categories_segments":[],"categories_sizes":[],"default_left":[0,0,0,0,0,0,0,0,0,0,0,0,0,0,0,0,0,0,0,0,0,0,0,0,0,0,0,0,0,0,0,0,0,0,0,0,0,0,0,0,0,0,0,0,0,0,0,0,0,0,0,0,0,0,0,0,0,0,0,0,0,0,0,0,0,0,0,0,0,0,0,0,0,0,0,0,0,0,0,0,0,0,0,0,0],"id":16,"left_children":[1,3,5,7,9,11,13,15,17,19,21,23,25,-1,27,29,31,33,35,37,39,41,43,45,-1,-1,47,-1,49,51,53,55,57,59,61,-1,-1,63,65,67,69,71,73,75,77,79,-1,-1,81,-1,83,-1,-1,-1,-1,-1,-1,-1,-1,-1,-1,-1,-1,-1,-1,-1,-1,-1,-1,-1,-1,-1,-1,-1,-1,-1,-1,-1,-1,-1,-1,-1,-1,-1,-1],"loss_changes":[9.416021E6,9.329378E6,8.458167E6,1.5654776E7,4.3157124E7,1.9116444E7,1.3321177E7,2.2581308E7,1.781883E7,5.1350188E7,4.2238212E7,2.5323288E7,3.1542674E7,0E0,2.039626E6,1.9891304E7,1.881976E7,1.4824792E7,5.3397E4,3.523404E7,1.5060883E8,5.6275508E7,2.7524948E7,2.1665364E7,0E0,0E0,2.2632916E7,0E0,1.9891344E5,1.1943396E7,1.4923092E7,1.0965048E7,1.4449602E7,2.2916164E7,5.246984E6,0E0,0E0,5.424466E6,5.4636104E7,1.3131008E8,1.7514462E7,1.0160752E8,1.560904E7,7.1163144E7,6.3438748E7,2.1347044E7,0E0,0E0,3.9092244E7,0E0,1.0739148E4,0E0,0E0,0E0,0E0,0E0,0E0,0E0,0E0,0E0,0E0,0E0,0E0,0E0,0E0,0E0,0E0,0E0,0E0,0E0,0E0,0E0,0E0,0E0,0E0,0E0,0E0,0E0,0E0,0E0,0E0,0E0,0E0,0E0,0E0],"parents":[2147483647,0,0,1,1,2,2,3,3,4,4,5,5,6,6,7,7,8,8,9,9,10,10,11,11,12,12,14,14,15,15,16,16,17,17,18,18,19,19,20,20,21,21,22,22,23,23,26,26,28,28,29,29,30,30,31,31,32,32,33,33,34,34,37,37,38,38,39,39,40,40,41,41,42,42,43,43,44,44,45,45,48,48,50,50],"right_children":[2,4,6,8,10,12,14,16,18,20,22,24,26,-1,28,30,32,34,36,38,40,42,44,46,-1,-1,48,-1,50,52,54,56,58,60,62,-1,-1,64,66,68,70,72,74,76,78,80,-1,-1,82,-1,84,-1,-1,-1,-1,-1,-1,-1,-1,-1,-1,-1,-1,-1,-1,-1,-1,-1,-1,-1,-1,-1,-1,-1,-1,-1,-1,-1,-1,-1,-1,-1,-1,-1,-1],"split_conditions":[-6.566686E1,3.429018E1,5.04E1,3.3110096E1,3.634118E1,3.9933224E1,5.74684E1,-8.512887E1,-8.091703E1,-8.204824E1,3.776707E1,3.886246E1,-1.51804E1,-3.3202948E2,6.03886E1,2.8352516E1,-8.450122E1,-8.314093E1,3.3728542E1,-9.971344E1,-7.7859344E1,3.732449E1,3.8064514E1,3.728632E1,-7.764638E2,-6.6626984E2,2.3158E0,5.237732E2,-1.51804E1,-1.515389E2,3.0257343E1,3.270211E1,3.2136753E1,-8.924317E1,-8.1607796E1,5.5061926E2,1.4800694E2,3.5404255E1,-9.662158E1,3.6010384E1,3.519616E1,3.728632E1,3.7661667E1,-9.3294876E1,3.8194675E1,3.5350693E1,1.0903241E3,1.4034218E3,1.027103E2,1.5840147E2,7.12761E1,8.105811E1,-4.3348914E2,2.8594104E2,5.2746376E1,-5.145033E2,1.7109795E2,-9.700972E0,-2.624661E2,-1.9994124E2,1.5974889E2,-5.442242E2,-1.058916E1,-1.139112E2,-4.0754816E2,6.4296783E2,6.353802E1,5.123423E2,2.3823088E3,-9.2978125E2,-9.171135E1,-8.8039116E1,9.540429E2,-2.680254E2,-6.216489E2,-2.2599867E2,4.9003018E2,-5.854223E2,1.7109995E1,1.5675183E2,-3.4526764E2,-2.6604498E2,1.0103468E3,2.8563356E1,-5.302295E0],"split_indices":[1,0,0,0,0,0,0,1,1,1,0,0,1,0,0,0,1,1,0,1,1,0,0,0,0,0,1,0,1,1,0,0,0,1,1,0,0,0,1,0,0,0,0,1,0,0,0,0,1,0,1,0,0,0,0,0,0,0,0,0,0,0,0,0,0,0,0,0,0,0,0,0,0,0,0,0,0,0,0,0,0,0,0,0,0],"split_type":[0,0,0,0,0,0,0,0,0,0,0,0,0,0,0,0,0,0,0,0,0,0,0,0,0,0,0,0,0,0,0,0,0,0,0,0,0,0,0,0,0,0,0,0,0,0,0,0,0,0,0,0,0,0,0,0,0,0,0,0,0,0,0,0,0,0,0,0,0,0,0,0,0,0,0,0,0,0,0,0,0,0,0,0,0],"sum_hessian":[1.89E3,1.807E3,8.3E1,4.39E2,1.368E3,7.1E1,1.2E1,3.37E2,1.02E2,1.77E2,1.191E3,6.1E1,1E1,8E0,4E0,1.89E2,1.48E2,9.9E1,3E0,1.48E2,2.9E1,2.04E2,9.87E2,5.9E1,2E0,1E0,9E0,1E0,3E0,1.6E1,1.73E2,1.4E1,1.34E2,8.7E1,1.2E1,2E0,1E0,2.4E1,1.24E2,1.7E1,1.2E1,1.38E2,6.6E1,5.2E1,9.35E2,5.8E1,1E0,2E0,7E0,1E0,2E0,6E0,1E1,2.9E1,1.44E2,1.2E1,2E0,1.1E2,2.4E1,6.7E1,2E1,1E1,2E0,1.4E1,1E1,1.6E1,1.08E2,1.3E1,4E0,2E0,1E1,1.3E2,8E0,5.1E1,1.5E1,1.9E1,3.3E1,1.5E1,9.2E2,5E1,8E0,4E0,3E0,1E0,1E0],"tree_param":{"num_deleted":"0","num_feature":"2","num_nodes":"85","size_leaf_vector":"1"}},{"base_weights":[1.5630511E1,-9.362691E2,2.0171917E1,-1.1750775E3,1.4612975E2,6.2535095E2,1.0368496E1,-2.7523065E2,-6.01835E2,-5.0265845E2,8.7105914E2,-4.7208038E2,2.2630674E1,-4.2939846E1,-1.2054331E2,2.423794E2,-9.357722E2,7.851586E2,5.1398627E2,-8.945204E1,-1.2608666E3,3.4888447E1,-3.291968E2,1.3474336E2,-2.5672632E1,-4.4751645E2,-7.59646E1,-1.5299237E3,9.172312E2,2.831194E2,-6.731647E2,2.5811026E1,1.7869888E3,-7.519197E2,3.0960092E2,-6.1947125E2,-1.989887E2,1.4104746E3,1.3373715E2,-4.3086816E2,8.161739E2,4.8165533E2,5.826808E0,-5.988932E2,7.5283203E2,-1.6388577E2,-3.757507E2,-1.7486635E2,2.2916495E2],"categories":[],"categories_nodes":[],"categories_segments":[],"categories_sizes":[],"default_left":[0,0,0,0,0,0,0,0,0,0,0,0,0,0,0,0,0,0,0,0,0,0,0,0,0,0,0,0,0,0,0,0,0,0,0,0,0,0,0,0,0,0,0,0,0,0,0,0,0],"id":17,"left_children":[1,3,5,7,-1,9,11,13,-1,15,17,19,21,-1,-1,23,25,-1,27,-1,29,31,33,-1,-1,-1,-1,35,37,39,-1,41,43,45,47,-1,-1,-1,-1,-1,-1,-1,-1,-1,-1,-1,-1,-1,-1],"loss_changes":[8.1936065E6,3.63159E6,1.1165026E7,5.43032E6,0E0,8.752682E6,1.0978714E7,2.6092625E4,0E0,2.1629285E6,1.4242246E7,5.934111E6,7.8130175E6,0E0,0E0,2.4186462E5,1.140141E6,0E0,1.9535612E7,0E0,1.2777384E7,2.777094E7,1.6704895E7,0E0,0E0,0E0,0E0,4.84874E5,3.1801924E7,2.0670726E7,0E0,1.7538454E7,2.9608868E7,3.124432E6,1.0581303E7,0E0,0E0,0E0,0E0,0E0,0E0,0E0,0E0,0E0,0E0,0E0,0E0,0E0,0E0],"parents":[2147483647,0,0,1,1,2,2,3,3,5,5,6,6,7,7,9,9,10,10,11,11,12,12,15,15,16,16,18,18,20,20,21,21,22,22,27,27,28,28,29,29,31,31,32,32,33,33,34,34],"right_children":[2,4,6,8,-1,10,12,14,-1,16,18,20,22,-1,-1,24,26,-1,28,-1,30,32,34,-1,-1,-1,-1,36,38,40,-1,42,44,46,48,-1,-1,-1,-1,-1,-1,-1,-1,-1,-1,-1,-1,-1,-1],"split_conditions":[-1.3759E1,7.12761E1,1.6742498E1,-1.515389E2,1.4612975E2,-6.838402E1,1.8328646E1,-1.5985619E2,-6.01835E2,-7.309049E1,-1.51804E1,-6.566686E1,4.853234E1,-4.2939846E1,-1.2054331E2,8.554E-1,-6.985075E1,7.851586E2,2.3158E0,-8.945204E1,1.8097597E1,4.8296074E1,5.74684E1,1.3474336E2,-2.5672632E1,-4.4751645E2,-7.59646E1,8.554E-1,4.5833E0,1.8039942E1,-6.731647E2,-1.2386991E2,-1.18477554E2,2.3158E0,-1.515389E2,-6.1947125E2,-1.989887E2,1.4104746E3,1.3373715E2,-4.3086816E2,8.161739E2,4.8165533E2,5.826808E0,-5.988932E2,7.5283203E2,-1.6388577E2,-3.757507E2,-1.7486635E2,2.2916495E2],"split_indices":[0,1,0,1,0,1,0,1,0,1,1,1,0,0,0,0,1,0,1,0,0,0,0,0,0,0,0,0,1,0,0,1,1,1,1,0,0,0,0,0,0,0,0,0,0,0,0,0,0],"split_type":[0,0,0,0,0,0,0,0,0,0,0,0,0,0,0,0,0,0,0,0,0,0,0,0,0,0,0,0,0,0,0,0,0,0,0,0,0,0,0,0,0,0,0,0,0,0,0,0,0],"sum_hessian":[1.89E3,8E0,1.882E3,7E0,1E0,2.9E1,1.853E3,4E0,3E0,5E0,2.4E1,4.5E1,1.808E3,3E0,1E0,2E0,3E0,3E0,2.1E1,3.8E1,7E0,1.748E3,6E1,1E0,1E0,1E0,2E0,3E0,1.8E1,3E0,4E0,1.74E3,8E0,3.6E1,2.4E1,1E0,2E0,1E0,1.7E1,2E0,1E0,6E0,1.734E3,1E0,7E0,2.7E1,9E0,8E0,1.6E1],"tree_param":{"num_deleted":"0","num_feature":"2","num_nodes":"49","size_leaf_vector":"1"}},{"base_weights":[1.1076794E1,-1.8960274E0,2.9016946E2,1.4065101E1,-2.8054495E2,3.936679E2,-5.1508575E2,4.0078373E0,2.4617178E3,-9.670279E0,-1.2732915E3,-3.7695984E2,4.5609164E2,-2.0816663E2,-1.1618416E3,-1.8355274E1,2.047293E2,2.3136005E2,4.076646E3,-1.2622527E3,1.3160197E2,-9.547827E2,-1.9104332E3,2.052872E3,3.3377292E2,-6.34954E2,4.1690173E2,-4.83947E2,-3.8881714E1,2.2919257E2,-5.078912E1,1.9006881E3,2.947244E1,5.43124E2,-8.9846216E2,2.21899E3,5.0443945E2,-4.0893375E2,-4.4356104E2,5.4615765E2,-1.8505237E2,-3.0899744E2,-8.566436E1,-2.160461E3,-9.904417E1,-1.2688461E3,7.65094E3,8.014259E2,-1.4341646E2,1.2421026E2,-8.78791E2,-2.4552671E1,1.4013853E2,-2.6356726E2,-8.081705E0,1.8836888E2,9.284979E2,9.260549E1,-1.9347607E2,-3.8543567E2,-1.8872314E1,-1.47894E2,3.7489175E2,-1.5335303E2,-3.0667164E1,7.081627E2,3.1934229E1,-1.0016005E2,8.6512897E2,-1.2220723E2,-7.490693E2,2.8102568E3,6.326663E2,3.6553967E2,-1.0890598E2,-1.2713147E2,3.1156284E2,-3.7484534E2,-1.14321976E2],"categories":[],"categories_nodes":[],"categories_segments":[],"categories_sizes":[],"default_left":[0,0,0,0,0,0,0,0,0,0,0,0,0,0,0,0,0,0,0,0,0,0,0,0,0,0,0,0,0,0,0,0,0,0,0,0,0,0,0,0,0,0,0,0,0,0,0,0,0,0,0,0,0,0,0,0,0,0,0,0,0,0,0,0,0,0,0,0,0,0,0,0,0,0,0,0,0,0,0],"id":18,"left_children":[1,3,5,7,9,11,13,15,17,19,21,-1,23,25,27,29,31,33,35,37,39,41,43,45,47,49,-1,-1,-1,51,53,55,57,-1,59,-1,61,63,-1,65,67,-1,-1,69,-1,-1,71,73,75,-1,77,-1,-1,-1,-1,-1,-1,-1,-1,-1,-1,-1,-1,-1,-1,-1,-1,-1,-1,-1,-1,-1,-1,-1,-1,-1,-1,-1,-1],"loss_changes":[6.8471415E6,8.045118E6,7.203557E6,4.2109284E7,2.634086E7,8.298972E6,1.7431605E6,7.657088E6,2.42699E7,1.3968616E7,2.437592E6,0E0,1.3572889E7,6.337877E6,1.1885168E6,1.2336046E7,5.077004E7,8.762786E6,4.3707556E7,8.7185E5,9.421299E6,5.11205E5,1.65742E6,2.0820491E8,1.5512912E7,2.1543248E6,0E0,0E0,0E0,1.3211358E7,2.6786458E7,2.2378284E7,2.9573704E7,0E0,8.8755975E5,0E0,2.845877E6,4.1822344E4,0E0,2.4480634E7,1.9686842E7,0E0,0E0,1.931912E6,0E0,0E0,8.78512E6,1.7439034E7,1.2037994E7,0E0,6.30859E5,0E0,0E0,0E0,0E0,0E0,0E0,0E0,0E0,0E0,0E0,0E0,0E0,0E0,0E0,0E0,0E0,0E0,0E0,0E0,0E0,0E0,0E0,0E0,0E0,0E0,0E0,0E0,0E0],"parents":[2147483647,0,0,1,1,2,2,3,3,4,4,5,5,6,6,7,7,8,8,9,9,10,10,12,12,13,13,14,14,15,15,16,16,17,17,18,18,19,19,20,20,21,21,22,22,23,23,24,24,25,25,29,29,30,30,31,31,32,32,34,34,36,36,37,37,39,39,40,40,43,43,46,46,47,47,48,48,50,50],"right_children":[2,4,6,8,10,12,14,16,18,20,22,-1,24,26,28,30,32,34,36,38,40,42,44,46,48,50,-1,-1,-1,52,54,56,58,-1,60,-1,62,64,-1,66,68,-1,-1,70,-1,-1,72,74,76,-1,78,-1,-1,-1,-1,-1,-1,-1,-1,-1,-1,-1,-1,-1,-1,-1,-1,-1,-1,-1,-1,-1,-1,-1,-1,-1,-1,-1,-1],"split_conditions":[-6.566686E1,4.6978302E1,1.345825E2,4.68852E1,-9.926283E1,-1.3759E1,1.6742498E1,4.440556E1,-9.805126E1,4.714E1,-9.601392E1,-3.7695984E2,8.554E-1,1.21784E1,3.567283E1,-1.023314E2,4.4547085E1,-1.174112E2,-9.634565E1,-1.18477554E2,4.853234E1,-9.634565E1,4.877286E1,1.84867E1,1.84867E1,-1.3759E1,4.1690173E2,-4.83947E2,-3.8881714E1,3.847974E1,-1.01044014E2,-9.520917E1,-9.1835106E1,5.43124E2,-1.0414E2,2.21899E3,-9.420722E1,-1.2055291E2,-4.4356104E2,-1.2055291E2,-1.0081401E2,-3.0899744E2,-8.566436E1,4.783741E1,-9.904417E1,-1.2688461E3,7.12761E1,5.04E1,3.9933224E1,1.2421026E2,8.554E-1,-2.4552671E1,1.4013853E2,-2.6356726E2,-8.081705E0,1.8836888E2,9.284979E2,9.260549E1,-1.9347607E2,-3.8543567E2,-1.8872314E1,-1.47894E2,3.7489175E2,-1.5335303E2,-3.0667164E1,7.081627E2,3.1934229E1,-1.0016005E2,8.6512897E2,-1.2220723E2,-7.490693E2,2.8102568E3,6.326663E2,3.6553967E2,-1.0890598E2,-1.2713147E2,3.1156284E2,-3.7484534E2,-1.14321976E2],"split_indices":[1,0,1,0,1,0,0,0,1,0,1,0,0,0,0,1,0,1,1,1,0,1,0,1,1,0,0,0,0,0,1,1,1,0,1,0,1,1,0,1,1,0,0,0,0,0,1,0,0,0,0,0,0,0,0,0,0,0,0,0,0,0,0,0,0,0,0,0,0,0,0,0,0,0,0,0,0,0,0],"split_type":[0,0,0,0,0,0,0,0,0,0,0,0,0,0,0,0,0,0,0,0,0,0,0,0,0,0,0,0,0,0,0,0,0,0,0,0,0,0,0,0,0,0,0,0,0,0,0,0,0,0,0,0,0,0,0,0,0,0,0,0,0,0,0,0,0,0,0,0,0,0,0,0,0,0,0,0,0,0,0],"sum_hessian":[1.89E3,1.807E3,8.3E1,1.71E3,9.7E1,7.4E1,9E0,1.704E3,6E0,7.7E1,2E1,2E0,7.2E1,7E0,2E0,1.534E3,1.7E2,3E0,3E0,7E0,7E1,1.5E1,5E0,4E0,6.8E1,6E0,1E0,1E0,1E0,1.77E2,1.357E3,1.5E1,1.55E2,1E0,2E0,1E0,2E0,2E0,5E0,3E1,4E1,1.3E1,2E0,4E0,1E0,2E0,2E0,3.4E1,3.4E1,1E0,5E0,7.7E1,1E2,3.7E1,1.32E3,8E0,7E0,1.1E2,4.5E1,1E0,1E0,1E0,1E0,1E0,1E0,5E0,2.5E1,3.9E1,1E0,1E0,3E0,1E0,1E0,2.5E1,9E0,2.8E1,6E0,2E0,3E0],"tree_param":{"num_deleted":"0","num_feature":"2","num_nodes":"79","size_leaf_vector":"1"}},{"base_weights":[1.0252173E1,-1.2705423E-1,2.843258E2,1.4625824E1,-2.4411574E2,9.344984E2,8.641677E1,6.4190607E0,8.882449E2,-8.201812E1,-1.2004271E3,1.8212084E3,-1.3971898E2,9.7985535E2,-6.749653E1,1.02751114E2,-4.3858074E1,9.180664E0,2.82035E3,-2.210428E2,1.1937643E3,-2.7373677E3,-5.8807794E2,-3.3622363E2,2.2726194E3,-1.1863916E3,2.2497314E3,-3.1975452E2,4.4123795E2,3.883924E1,1.0763282E3,-3.9447202E2,1.8363977E1,3.3670137E3,-9.990873E2,1.7068712E3,6.8065247E2,-5.6563947E2,-1.5586394E2,7.729473E2,7.298584E1,-9.3751056E2,-2.361548E2,3.9545914E2,-1.6375249E3,1.3998887E3,1.0654354E3,4.510756E3,-5.737258E2,-1.7063363E3,2.1753834E-1,9.449712E2,5.0666626E1,-1.473925E1,1.5226997E2,7.16537E2,-3.4685748E2,-1.4787575E2,3.6603864E2,9.6688354E1,-1.643314E1,-2.0609474E1,1.5357656E3,-6.754477E2,2.1108482E2,4.3166516E2,-1.5515772E1,-6.145133E1,5.5696014E2,-5.368424E2,4.3547543E2,5.0766965E2,-1.3850894E2,-6.3614996E2,1.1660245E2,1.0860352E2,1.1440726E3,-2.2003128E2,1.9509899E3,1.05578766E2,-2.998762E2,5.8426174E1,-6.3765155E2,2.0839412E2,-3.7493323E2,-5.969101E2,1.5528693E2],"categories":[],"categories_nodes":[],"categories_segments":[],"categories_sizes":[],"default_left":[0,0,0,0,0,0,0,0,0,0,0,0,0,0,0,0,0,0,0,0,0,0,0,0,0,0,0,0,0,0,0,0,0,0,0,0,0,0,0,0,0,0,0,0,0,0,0,0,0,0,0,0,0,0,0,0,0,0,0,0,0,0,0,0,0,0,0,0,0,0,0,0,0,0,0,0,0,0,0,0,0,0,0,0,0,0,0],"id":19,"left_children":[1,3,5,7,9,11,13,15,17,19,21,23,-1,25,27,29,31,33,35,37,39,41,43,-1,45,-1,47,49,51,53,55,57,59,61,63,-1,65,-1,67,-1,69,-1,-1,71,73,75,-1,77,79,81,83,-1,85,-1,-1,-1,-1,-1,-1,-1,-1,-1,-1,-1,-1,-1,-1,-1,-1,-1,-1,-1,-1,-1,-1,-1,-1,-1,-1,-1,-1,-1,-1,-1,-1,-1,-1],"loss_changes":[5.3793115E6,6.5655235E6,8.79782E6,1.2325984E7,1.6023186E7,2.0713736E7,7.4917895E6,8.262332E6,2.714922E7,1.6226746E7,1.2507378E7,1.5827328E7,0E0,5.9026444E7,6.172707E6,3.6358732E7,2.4462892E7,4.3991084E7,2.68237E7,8.601904E6,1.3759524E7,5.6412E5,1.3033614E7,0E0,5.073044E6,0E0,4.727528E7,1.4197728E7,1.6767239E7,2.2703624E7,1.0821818E8,2.746444E7,2.1202666E7,1.8411896E7,2.2908926E7,0E0,2.2956465E6,0E0,8.2646705E6,0E0,1.800309E7,0E0,0E0,8.562052E6,6.695805E6,1.6155208E7,0E0,4.6566904E7,1.928587E6,5.195218E6,2.4305052E7,0E0,1.5321351E7,0E0,0E0,0E0,0E0,0E0,0E0,0E0,0E0,0E0,0E0,0E0,0E0,0E0,0E0,0E0,0E0,0E0,0E0,0E0,0E0,0E0,0E0,0E0,0E0,0E0,0E0,0E0,0E0,0E0,0E0,0E0,0E0,0E0,0E0],"parents":[2147483647,0,0,1,1,2,2,3,3,4,4,5,5,6,6,7,7,8,8,9,9,10,10,11,11,13,13,14,14,15,15,16,16,17,17,18,18,19,19,20,20,21,21,22,22,24,24,26,26,27,27,28,28,29,29,30,30,31,31,32,32,33,33,34,34,36,36,38,38,40,40,43,43,44,44,45,45,47,47,48,48,49,49,50,50,52,52],"right_children":[2,4,6,8,10,12,14,16,18,20,22,24,-1,26,28,30,32,34,36,38,40,42,44,-1,46,-1,48,50,52,54,56,58,60,62,64,-1,66,-1,68,-1,70,-1,-1,72,74,76,-1,78,80,82,84,-1,86,-1,-1,-1,-1,-1,-1,-1,-1,-1,-1,-1,-1,-1,-1,-1,-1,-1,-1,-1,-1,-1,-1,-1,-1,-1,-1,-1,-1,-1,-1,-1,-1,-1,-1],"split_conditions":[-1.51804E1,-7.258595E1,4.5833E0,-7.429926E1,4.3969746E1,5.04E1,8.554E-1,3.6654606E1,4.4352913E1,4.1446346E1,-7.17358E1,8.554E-1,-1.3971898E2,1.84867E1,3.728632E1,-8.109178E1,3.776707E1,4.1446346E1,4.4465485E1,-6.985075E1,4.30352E1,4.4547085E1,4.4715717E1,-3.3622363E2,3.6178474E1,-1.1863916E3,1.345825E2,7.12761E1,3.886246E1,3.560049E1,-7.753406E1,-7.684326E1,3.892513E1,7.1315E0,4.311364E1,1.7068712E3,-7.309049E1,-5.6563947E2,2.0194742E1,7.729473E2,4.3661465E1,-9.3751056E2,-2.361548E2,-6.985075E1,4.6978302E1,2.3158E0,1.0654354E3,-1.3759E1,-1.3759E1,1.84867E1,3.0717804E1,9.449712E2,3.9933224E1,-1.473925E1,1.5226997E2,7.16537E2,-3.4685748E2,-1.4787575E2,3.6603864E2,9.6688354E1,-1.643314E1,-2.0609474E1,1.5357656E3,-6.754477E2,2.1108482E2,4.3166516E2,-1.5515772E1,-6.145133E1,5.5696014E2,-5.368424E2,4.3547543E2,5.0766965E2,-1.3850894E2,-6.3614996E2,1.1660245E2,1.0860352E2,1.1440726E3,-2.2003128E2,1.9509899E3,1.05578766E2,-2.998762E2,5.8426174E1,-6.3765155E2,2.0839412E2,-3.7493323E2,-5.969101E2,1.5528693E2],"split_indices":[1,1,1,1,0,0,0,0,0,0,1,0,0,1,0,1,0,0,0,1,0,0,0,0,0,0,1,1,0,0,1,1,0,0,0,0,1,0,0,0,0,0,0,1,0,1,0,0,0,1,0,0,0,0,0,0,0,0,0,0,0,0,0,0,0,0,0,0,0,0,0,0,0,0,0,0,0,0,0,0,0,0,0,0,0,0,0],"split_type":[0,0,0,0,0,0,0,0,0,0,0,0,0,0,0,0,0,0,0,0,0,0,0,0,0,0,0,0,0,0,0,0,0,0,0,0,0,0,0,0,0,0,0,0,0,0,0,0,0,0,0,0,0,0,0,0,0,0,0,0,0,0,0,0,0,0,0,0,0,0,0,0,0,0,0,0,0,0,0,0,0,0,0,0,0,0,0],"sum_hessian":[1.89E3,1.822E3,6.8E1,1.719E3,1.03E2,1.5E1,5.3E1,1.704E3,1.5E1,8.9E1,1.4E1,9E0,6E0,7E0,4.6E1,5.84E2,1.12E3,1.1E1,4E0,8.1E1,8E0,3E0,1.1E1,